0,1,2,3,4,5,6,7,8,9,10,11,12,13,14,15,16,17,18,19,20,21,22,23,24,25,26,27,28,29,30,31,32,33,34,35,36,37,38,39,40,41,42,43,44,45,46,47,48,49,50,51,52,53,54,55,56,57,58,59,60,61,62,63,64,65,66,67,68,69,70,71,72,73,74,75,76,77,78,79,80,81,82,83,84,85,86,87,88,89,90,91,92,93,94,95,96,97,98,99,100,101,102,103,104,105,106,107,108,109,110,111,112,113,114,115,116,117,118,119,120,121,122,123,124,125,126,127,128,129,130,131,132,133,134,135,136,137,138,139,140,141,142,143,144,145,146,147,148,149,150,151,152,153,154,155,156,157,158,159,160,161,162,163,164,165,166,167,168,169,170,171,172,173,174,175,176,177,178,179,180,181,182,183,184,185,186,187,188,189,190,191,192,193,194,195,196,197,198,199,200,201,202,203,204,205,206,207,208,209,210,211,212,213,214,215,216,217,218,219,220,221,222,223,224,225,226,227,228,229,230,231,232,233,234,235,236,237,238,239,240,241,242,243,244,245,246,247,248,249,250,251,252,253,254,255,256,257
DB00005,0.12730084,0.2787747,-0.21046567,-0.25745827,0.21164039,-0.46230677,-0.38000003,0.07729563,0.1845662,0.27596697,-0.081625685,0.45223433,0.0981973,-0.037117332,0.11943301,0.33280155,0.78395617,-0.23148184,0.008606612,-0.33562002,-0.05743688,-0.41260317,-0.39490503,-0.8450953,-0.28966838,-0.1905641,0.7904777,0.19139288,0.14171708,0.21866405,-0.5342255,0.2531938,0.22570315,0.095861316,0.8732873,-0.20795856,0.5243209,0.859615,-0.104244456,-0.23731898,-0.09616292,-0.20899875,-0.11314257,0.09257396,-0.38249487,0.9205105,0.04541939,0.1822202,-0.062349226,0.64961845,-0.027633274,0.02864116,0.13367455,0.041077778,-0.9288682,-0.093042314,-0.39552042,-0.04692741,-0.439489,0.21947703,0.23885034,0.23507176,0.15945135,-0.15933383,-0.53126675,-0.031077499,-0.28716752,-0.68779373,-0.6995035,-0.15117714,-0.03613658,-0.04512981,-0.061681587,0.03655048,0.124258034,-0.51593083,0.45140806,0.11564569,-0.24533059,-0.2434212,-0.103679635,-0.16183273,1.0180715,0.082095966,0.3786492,0.17298476,0.19178751,-0.30544686,0.037949845,-0.47545305,-0.037091423,-0.09736475,0.13360277,-0.122428596,0.20902695,0.102137305,0.27752885,0.61096144,-0.1934615,0.18134831,-0.519744,0.05619171,-0.8442854,0.20000869,0.024730477,0.20483302,-0.3160976,-0.20613879,0.937922,-0.5031951,0.10139013,-0.038904477,-0.56903595,-0.1762547,0.17963085,0.43407935,0.20770584,-0.1943989,0.22962867,0.4526097,-0.4071945,-0.19865161,-0.051138576,-0.22126856,-0.024337798,0.31703594,0.42172456,0.110058755,-1.2703987,0.048969083,-0.8008289,0.23606373,0.44242573,-0.12847464,-0.5444425,-0.11539109,-0.07928623,-0.1769724,-0.9488449,0.46602464,0.27287692,-0.5770539,-0.19241433,-0.018762086,-0.48214212,0.23619033,0.12552063,-0.16551112,0.5505397,-0.0012993396,-0.44345498,-0.27043548,-1.0841072,-0.033714946,-0.79747236,-0.14712955,0.7112329,-0.90272325,-0.43363324,-0.14554492,0.8215449,0.30518883,0.019814264,-0.043980524,0.09384249,-0.06315645,-0.14147668,-0.31540707,-0.20073217,-0.50017434,0.14702134,0.23152271,0.0078345295,0.09563844,-0.21619974,-0.68943495,0.09012433,0.30859837,-0.8586642,-0.08784242,-0.022099389,0.10095144,0.43206012,0.11696445,0.021328881,-0.24937096,0.2240055,0.74793786,-0.0384259,0.13083482,-0.028897764,-1.1152986,0.32798603,0.04628657,0.2757406,-0.1038146,0.8602206,0.314599,0.2836137,0.055135194,0.98860276,-0.66146475,-0.23898095,-0.641972,-0.3388164,-0.5560923,-0.81095165,0.16112158,0.39113492,0.7002157,0.113446295,0.061765898,0.26136774,-0.89175284,-0.14045475,-0.024086218,0.8458401,-0.30917892,-0.7656373,1.0422989,-0.2714123,0.019050872,-0.26936585,0.24907684,0.40626612,-0.27652097,-0.09130637,0.33882925,0.16080453,0.16282101,-0.58440393,-0.08964456,0.36613122,0.17479236,-0.52065825,0.27827924,-0.13624792,-1.0152484,-0.05986385,0.20834208,0.85200363,-0.71050686,-0.23351179,0.24991676,-0.10918499,0.4643562,0.47201434,0.17220771,-0.17833543,0.6422799,0.65681857,-0.031307463,0.01335412,-0.31328565,-0.15876952,-0.113146126,1.3105694
DB00006,0.28196442,0.12558058,-0.8794049,-0.14414366,-0.037345316,-0.49452013,-0.7690569,-0.07684804,0.018647643,0.36507908,-0.27707326,0.23500283,-0.14853726,-0.051473435,-0.05889252,0.14480282,-0.5127241,0.69947904,-0.35426056,0.12526707,-0.22635402,-0.31968787,-0.37924403,0.6492899,-0.123825066,0.052248504,-0.3348768,0.61285454,0.13277046,0.0269137,-0.07947194,-0.14397898,0.37777832,-0.3570789,-0.08706899,0.037616227,0.8493575,0.16316791,-1.1074356,0.16171603,-0.37443176,0.19696686,-0.06696285,0.11246162,0.08473029,0.3448245,0.01943981,0.25142553,-0.17409194,-0.30960208,0.09707009,-0.22186993,0.01617236,-0.0713828,0.02294636,-0.22468562,-0.9086694,-0.19865744,0.35291374,0.67731076,-0.004355981,0.04887202,0.20420964,-0.7051527,-0.11721391,0.22328484,-0.51275784,0.6633438,-0.99537075,-0.52871376,0.061195333,-0.009456594,-0.3826597,-0.037654325,0.11739503,0.6624618,0.0039852555,0.31165302,0.42430833,-0.2058246,-0.315737,-0.24740483,-0.93966866,0.10811877,-0.2154859,0.29719767,-0.28314722,0.08518567,0.859877,-0.69769394,0.10124152,-0.56800956,0.21906386,-0.3156748,0.26555437,-0.093684606,-0.09198103,0.31130004,-0.0785061,0.008926509,-0.20153606,-0.09342361,0.62742287,0.118530266,-0.055382114,0.1567429,0.105402336,-0.3258612,0.1870973,-0.093161136,-0.061129823,-0.1667745,-0.37050477,-0.22376907,0.22012866,1.0659218,0.100799315,0.29692048,0.38345942,-0.24761716,-0.79824394,0.10985151,-0.092443176,0.0074319853,-0.233716,0.03456287,-0.014618769,-0.20515871,0.8019287,0.0926676,0.4356171,0.277909,-0.19428991,-0.15976866,0.56960404,-0.046918854,0.28701603,-0.07298231,-0.4074732,0.8070028,0.24718373,-0.9403225,-0.23156767,-0.053833928,-0.4476708,0.18369171,0.3313753,-0.4434342,-0.29268062,-0.028983181,0.6161715,0.29533383,-0.47310922,0.039040383,-0.7906202,-0.23472415,0.0026834996,0.38035953,0.7442183,-0.098511524,-0.29988217,0.96724075,0.4142836,-0.09174913,-0.493353,-0.13013478,-0.37737063,0.103890605,0.06250615,0.04248054,0.45710093,-0.13608478,-0.13180551,0.12724796,-0.036914144,-0.017472291,0.3778866,0.21531205,0.5508733,0.11215459,-0.00038661325,0.18916456,0.1796748,0.06489088,0.1725909,-0.19172084,0.24031875,-0.15998533,-0.11977812,0.2023459,0.17587017,-0.56703484,0.69895494,-0.007777905,-0.2828098,0.8718887,-0.39070582,-0.23008505,0.785868,0.23560524,-0.16486815,-0.21100934,-0.21120676,-0.32726428,-0.044379257,-0.7220734,-0.33964896,0.38884205,0.10435467,-0.25957868,-0.013145696,0.02997075,0.20276171,-0.04888508,-0.5931196,-0.38521102,-0.8106303,0.2691717,-0.71356624,-0.3958154,-0.94810843,-0.098192506,0.4243807,-0.7555816,-0.06992082,-0.23390515,0.054834254,-0.66038454,0.0057416577,0.3023179,0.12587105,-0.05146347,0.3408741,-0.08183605,-0.30894545,-0.20330046,-0.16033691,1.0572467,0.10509897,-0.07930198,0.29812154,0.67933655,0.7602495,0.25533244,0.07030094,-0.7215962,-0.108081944,0.31446573,-0.043171555,1.1286558,0.057260253,-0.021515576,-0.12555012,0.21016032,0.00053894776,0.08813943,1.6537869
DB00007,0.0351118,0.09191696,-0.33277634,-0.22834256,0.007692431,-0.23521505,-0.085496604,0.1416795,0.12076395,0.3123492,-0.076381214,-0.38224292,0.009577138,0.00040832296,-0.014782486,-0.019438295,-0.3358587,0.22427334,-0.27060798,-0.56541157,-0.23352835,-0.4677474,0.0029944377,0.288015,-0.004565264,0.5816726,-0.015414679,-0.4622608,0.08714705,-0.040370803,-0.5558061,0.19658232,-0.07111459,-0.08384114,-0.15046616,0.16416287,-0.36418197,-0.641332,0.47929752,-0.25195408,-0.11611826,-0.14021555,0.1975765,-0.33467102,0.61868036,-0.06658672,-0.14290646,0.29341483,-0.13560496,0.61995417,-0.14194235,-0.17547092,0.17298904,0.2548393,0.31773427,0.009794257,-0.072361976,0.04785242,-0.18664691,-0.040080644,-0.17390852,-0.24138843,-0.04907547,-0.007857023,-0.3979592,0.027056236,-0.22367428,-0.31408545,0.40249327,-0.2678694,-0.2834331,-0.20932642,-0.31044576,0.1444582,0.11824852,0.18755293,-0.5170401,0.2497989,0.2363586,-0.2300759,-0.12935302,-0.085458085,-0.11732846,-0.16833125,0.32412174,-0.29716337,0.27614415,-0.09223838,-0.2696768,0.4651567,-0.0805362,0.2043926,-0.01437429,-0.016371567,0.1436008,-0.12864062,0.16173196,-0.280218,0.12183005,0.18855806,-0.16539365,-0.048055414,-0.014586124,0.3206857,0.21576293,0.31611577,0.29990792,0.042899903,0.28018698,0.26765147,0.10997043,-0.242785,-0.25485903,-0.123127505,0.05110601,0.15647805,0.31012008,-0.07470961,0.28022,0.053503286,0.2102529,-0.1697836,0.06794355,-0.09170817,-0.10528541,-0.18175992,0.010042874,0.116488144,0.24257053,0.062411364,-0.13757737,0.50508446,-0.021413166,-0.13430944,0.2776564,0.1357497,-0.0884798,-0.16898173,-0.5159905,-0.053396713,0.076713614,0.10995724,-0.09649799,-0.023335036,0.22959127,0.15048057,0.20424783,-0.19154343,-0.25166816,-0.022986086,-0.16088644,-0.024120945,0.07138155,-0.03765041,-0.16970803,0.08463459,-0.11692789,-0.17320935,-0.1627968,0.08163598,0.08462862,-0.53460866,0.093552835,-0.091409616,0.1674166,0.19035225,-0.03128143,-0.7478217,0.054819148,-0.43486363,0.16958843,-0.119225696,-0.0065794317,0.007395492,-0.037183464,0.09493007,0.16032338,0.23584779,0.5263464,0.16470873,-0.13769212,-0.072290875,0.12753527,0.09394327,-0.03707507,-0.17676884,0.17802419,0.16599056,0.032510992,0.25077397,0.20865276,0.6389007,-0.3442178,-0.06033965,0.22956866,0.3005236,0.34258738,-0.071804345,-0.34040192,-0.48191252,0.15518197,0.19567336,0.08585775,0.14863679,-0.13945282,-0.12769358,0.17875831,0.5071995,0.09667363,-0.100638054,-0.022287605,0.15321371,-0.073299035,0.60331583,-0.0029187046,-0.24999543,-0.10232405,-0.31934336,0.31530026,0.88481826,0.25318652,-0.15043868,0.043498736,-0.0055189547,-0.58077025,-0.13070881,0.054396514,-0.032166522,0.2798903,-0.28921172,-0.05745069,-0.038045004,0.38329062,-0.040672816,0.4726153,-0.27494064,0.16309144,0.15320124,-0.16331461,0.06252558,-0.07458891,-0.017106365,0.55658525,0.30040762,0.016826576,-0.03081645,0.015633903,-0.005059835,0.4197716,-0.59810007,0.4549664,-0.08556353,0.00043878262,0.06760919,0.15817991,-0.23515141,-0.12165874
DB00008,0.1916641,0.10603851,0.20132433,-0.25972423,0.2486381,-0.24264471,0.5551351,-0.12298499,0.37331894,0.030462395,0.3138339,0.045466498,0.25387403,-0.0065921806,0.2038299,0.3009466,0.25806993,-0.76745194,-0.12074201,0.0974193,-0.4113511,0.6411097,-0.33610672,0.12021705,-0.07038,0.41863918,0.5050791,0.36212742,0.31150755,0.07924499,-0.25744477,-0.08691254,0.08908934,-0.13115405,0.19507441,0.33502507,0.083550744,-0.57145005,0.09640797,0.36653292,0.02008467,-0.16316354,0.000387993,0.11425239,0.10214018,-0.23413447,-0.031973727,0.0063157096,-0.17106779,0.07639934,-0.038216814,0.16900387,-0.1442602,0.3226969,-0.48219925,-0.082727686,-0.5893225,0.016393976,-0.41861206,-0.8140451,-0.16213977,0.31533575,0.12730065,0.078899644,-0.36903986,-0.31927523,-0.44226426,0.22879785,-0.21922787,-0.12530558,-0.14855814,-0.27304187,-0.2757591,0.18644182,0.033963755,-0.35868946,0.5730645,0.3168466,0.25419638,-0.20159009,-0.20321748,-0.18457316,0.023619205,-0.09366003,0.2823224,0.08943802,0.062727034,0.09314096,-0.510818,-0.031201646,0.0111018075,-0.0006615318,0.090160616,-0.06927772,0.100969136,0.3154695,0.37744135,-0.65234977,0.13416177,0.03328851,-0.20023772,0.012628319,0.66450304,0.19936961,-0.13223672,-0.046492904,-0.1298954,-0.12555073,-0.10739728,0.15126014,0.16035391,0.1211007,-0.5024191,-0.084760614,0.18489142,-0.49524704,-0.45972866,0.012187461,0.017212842,0.16643801,0.06548369,-0.027538467,0.061422788,-0.26280183,-0.34235117,0.2258823,-0.2222495,-0.028376184,-0.09109575,0.2346908,-0.07907773,0.021412864,-0.25435284,0.03921041,0.07702756,-0.21462789,0.1600785,-0.062547676,-0.34793875,0.018323436,0.026731003,-0.65942717,-0.15714589,0.033771385,0.19393577,0.0343118,0.041234594,-0.31215963,-0.07756335,-0.039965376,0.14098935,0.014847036,-0.50094956,-0.03800612,0.079028204,-0.8474407,-0.22455582,0.058582734,0.56420726,-0.17374235,0.28025237,-0.15702152,-0.015020846,-0.37137672,0.6051618,0.4342297,-0.1366971,0.7926347,-0.3286455,0.5518165,0.1836911,-0.3089043,0.07964482,0.2741897,-0.23834673,0.16611598,0.20285778,0.08008028,-0.31732193,-0.0019921693,-0.04498589,0.14308237,0.01970276,-0.14317608,0.090227015,-0.27647838,0.20749842,0.70774674,-0.044173546,-0.038059566,0.35426882,-0.008026448,-0.48333138,0.02089231,0.72626984,-0.44465792,0.50204676,0.20257586,0.34391683,-0.2681271,0.45825505,-0.17318769,-0.29274985,0.28043997,0.10606923,0.15247925,-0.026100537,0.29782256,-0.03374653,-0.6621428,0.22357817,0.22773999,-0.036691926,0.4208259,0.19759347,-0.0025578684,0.7707864,0.0123029165,0.2536685,0.06878034,0.23538706,-0.06333033,-0.14807409,-0.7185888,-0.13743617,-0.5652407,0.09595627,0.20808291,-0.17483883,0.1807068,0.28891167,0.21252121,-0.07194586,-0.11985315,-0.33550417,-0.09268983,-0.18116651,-0.095534354,-0.052503712,0.39615992,0.5341033,0.21969095,-0.27008307,0.23218179,-0.23134057,0.24134073,0.014237815,0.23162536,0.07600512,-0.36359578,0.40025616,0.013232715,-0.19540432,-0.3590175,0.076718286,0.023509784,1.0427204
DB00009,0.5718615,0.2966347,-0.7181475,-0.42268842,-0.3344633,-0.46918833,-0.9007458,-0.18242337,0.13238648,0.42587388,0.12348358,0.44309404,-0.25379375,-0.06109722,0.01263982,0.36356384,-0.39789128,0.70184124,-0.09815659,0.040945232,0.08185409,-0.088082634,-0.2590153,0.6794527,0.11332192,-0.36264488,-0.4259955,0.839222,0.3650741,-0.22240682,-0.07027745,0.22881943,0.22344863,-0.07905953,-0.2485011,-0.20765416,0.5443688,0.25211954,-0.6922659,0.029759591,0.09220549,-0.2633929,-0.08487267,0.20255044,0.40576223,-0.018413454,-0.012217183,0.34547943,-0.32713017,-0.14638108,0.11738873,0.18459995,0.029443873,0.211196,-0.08270422,0.2711873,-0.52830607,0.13487068,0.37171486,0.5628663,-0.07010405,0.10156712,0.19989133,-0.6138945,-0.15855387,-0.18717028,-0.37084812,0.42778993,-0.851714,-0.11572385,-0.14769569,-0.4272828,-0.47312698,0.28318065,0.10399384,0.50821686,0.456014,0.38801542,0.09752975,-0.2794643,0.047958765,0.073013194,-0.8256377,-0.12455307,-0.10432913,0.03274028,0.17796291,0.14652272,0.6357402,-0.41106108,0.08331629,-0.4868206,0.10645697,-0.3476422,-0.08020781,0.06964429,-0.10735987,-0.13022636,-0.29292282,-0.09088115,0.02314302,-0.20269826,0.8948601,0.101283446,0.032789,-0.0071730213,-0.117826015,0.033364397,0.24044752,-0.21046507,-0.24253498,-0.17993072,-0.34066752,-0.07432208,0.18865171,0.92080384,-0.042649873,0.4432329,0.21281433,-0.1369848,-0.6261196,0.15154417,0.05412376,-0.2626658,-0.12620926,-0.06555566,0.09117744,-0.08118473,0.73714566,0.0917665,0.6166494,0.27514505,0.14673322,-0.12590428,0.21336819,-0.038143463,-0.2403763,-0.43829614,-0.02115091,0.30955723,0.29358634,-0.60235363,-0.16207387,-0.20532832,-0.5016576,0.03912127,0.22710595,-0.20812498,-0.2473163,-0.16100512,0.7001491,0.051100336,-0.5742204,-0.16839671,-0.82864475,-0.13175265,-0.45738998,0.7396747,0.5147266,-0.07971058,0.1678009,0.8353623,-0.09825257,-0.08938398,-0.52321863,0.17816044,-0.22205299,0.35465065,-0.06708697,0.10783499,0.17375417,-0.16398567,-0.114270315,0.21286282,-0.2289644,0.1503201,0.23304832,0.21050683,0.58451366,-0.55601203,0.05464897,-0.12461752,0.50881124,0.12585649,-0.117368445,-0.33314127,0.058591984,0.51998115,-0.11056158,0.087335095,0.21220599,-0.2353287,0.81920373,0.25602472,-0.08066483,0.8577338,0.13186213,-0.2275503,0.60028076,-0.3900179,-0.1285455,-0.23841245,0.07791722,-0.2925567,-0.50102174,-0.48141712,0.4817223,0.29517764,-0.093083896,-0.50766456,0.2523156,0.09503804,-0.05812882,0.22363673,-0.57945085,-0.24792606,-0.5151062,-0.056840017,-0.5757791,-0.58859336,-0.5791252,-0.29679772,0.1830324,-0.56263256,-0.18756899,-0.058906008,0.47110054,-0.48248622,0.16280018,0.15885063,0.04882454,-0.17850462,0.28008345,0.2902798,0.17928094,0.06690386,0.19946378,0.89537597,-0.27967274,-0.24094675,0.06716565,0.7525292,0.7224837,0.11322083,0.02988831,-0.61973804,0.19670115,0.6355569,0.1730579,0.9295148,0.23017262,0.040043205,0.18986116,0.02137978,0.016369779,-0.21228246,1.2925255
DB00012,0.5670393,0.23982742,0.011448701,-0.19980918,-0.16121131,-0.573022,0.15139945,-0.055375844,0.24046394,0.30520308,0.045963503,1.0032947,-0.18028809,-0.3071021,-0.16558655,0.9921761,0.32984227,0.064988054,0.15204649,-0.5136989,0.12682422,-0.0014397756,-0.41238,-0.9894975,0.10709761,-0.62655365,0.0093824705,0.25798824,-0.051581595,-0.36650878,-0.45113087,-0.4285832,-0.07864316,-0.7699051,-0.1842987,0.92849594,0.55147284,0.5112389,-0.096645996,0.26563314,-0.2656257,0.16667928,0.045277584,0.12731607,-0.09116407,0.7215363,0.18330802,0.40086928,0.15170316,-0.4792513,-0.08936538,-0.14304893,-0.43312138,0.2699475,-0.8346916,0.034499757,-0.05164619,0.048012994,-0.056789245,-0.67944556,0.44970572,0.17254597,-0.15604173,-1.2218765,0.19655737,0.1274702,-0.24966685,-0.34119266,0.19891725,-0.3132661,-0.5170405,0.15575014,0.04970399,0.13812381,0.81643456,1.1659992,0.5461034,0.028061686,0.05160475,-0.47029972,-0.04874782,-0.25187337,0.8449983,0.5597453,0.7292123,-0.45002085,-0.08814733,-0.38780546,-0.46543,0.20741372,-0.17546985,-0.16090721,0.05117657,-0.6642713,-0.13095409,-0.2629173,0.046923887,-0.026705215,0.016742013,0.26611674,-0.19378619,-0.34403554,-0.62902564,0.0980269,-0.5891801,0.65611124,-0.13893521,-0.18082444,0.46312255,-0.3633762,-0.08629334,0.13067849,-0.1461528,-0.46315393,0.2436531,-0.022341909,-0.85017973,-0.06705698,0.09587763,0.473585,-0.40869224,-0.1343497,0.00081289635,-0.33461136,-0.22989929,-0.12197622,-0.13854869,0.19512196,-0.40551215,0.43238002,-0.017985668,0.16268344,-0.02979229,0.27080575,-0.19724861,0.397081,0.33345243,-0.2062656,-0.8475796,0.1414136,0.015092065,-0.7882869,-0.26550353,-0.12669517,0.1810866,0.03964533,0.36029446,-0.37280366,-0.12676826,-0.5580561,-0.5981537,-0.18593031,-0.6187011,0.44732055,-0.04687266,-0.1170894,0.45712936,-0.10238641,-0.32772604,-0.010383715,0.6833944,-0.38656607,-0.09932369,-0.2552116,0.18886764,-0.13214621,-0.54086816,0.037818067,-0.06411065,0.017971113,0.31859523,-0.00049136876,0.17657274,0.36331624,-0.077326484,-0.35276645,0.87288535,0.29031357,-0.9002553,-0.035431646,0.09380953,0.10671839,0.3330778,-0.2971824,0.44447407,-0.26069102,-0.0060319174,0.7477029,-0.09164903,0.29350102,0.31588563,-0.9088279,0.8553072,0.22556598,0.5141112,-0.26495624,0.46160582,-0.072095364,0.05150906,0.65338683,0.6610211,-0.83400637,-0.177104,-0.32614046,-0.19176297,-0.3039101,-0.9764725,0.09317956,0.3120431,0.4827463,-0.40932506,0.049180776,0.16322456,-0.023761896,-0.8098565,-0.28644177,0.8604396,0.12824655,0.58732474,0.24256487,-0.03306102,0.0146786785,-0.79923403,-0.034444153,0.23702031,0.12198746,0.14586517,-0.06226248,0.056260083,-0.46420825,-0.843587,-0.36708248,-0.10020132,0.34592688,-0.2800832,-0.53203833,0.42616126,-0.30342942,0.0021025583,0.012744326,0.40724882,-0.5307888,-0.04338564,0.6215904,-0.4105143,0.6464776,0.48126444,0.4759974,-0.33168888,0.18031734,-0.33393812,-0.13601911,0.16778265,-0.16228773,-0.12465055,-0.5367866,1.768926
DB00013,0.5328762,0.33351973,-0.7101215,-0.18075678,-0.2032367,-0.24921979,-0.973782,-0.022057142,0.3305827,0.42086923,-0.116956264,0.14039238,-0.44374654,-0.22128236,0.01825907,-0.023495981,-0.5878328,0.7153402,0.16462901,-0.03230937,-0.24422225,0.30037892,-0.2230985,0.5215716,-0.024624387,-0.23415743,-0.15199183,0.7567112,0.22484931,-0.08228021,-0.1223959,0.48704135,0.39011547,-0.441753,-0.01960099,-0.011532938,0.68789923,0.17403522,-0.6819777,0.06391917,-0.13867106,-0.24827597,0.18805514,0.07915277,0.4068455,0.061831933,0.21773347,0.25038648,-0.4789644,0.11517922,-0.15565714,0.046693664,-0.033797327,0.09432086,-0.38331336,0.2887051,-0.6376288,0.05101302,0.1767226,0.576941,-0.042998742,-0.07423997,0.059196983,-0.7271551,-0.35971707,0.09368455,-0.20003901,0.5680346,-0.8135631,-0.2945109,-0.24772002,-0.56818664,-0.40068153,0.28004485,0.22544102,0.26477945,0.36346206,0.32347673,-0.04792014,-0.2718774,-0.19198519,-0.08908812,-0.7250611,0.061942294,-0.04888435,-0.31031373,-0.043391567,0.023348061,0.69221234,-0.5451129,-0.06366834,-0.5879218,0.15731575,-0.32478228,-0.025087517,0.07560554,0.0110632805,-0.23129265,-0.14524907,0.018766746,-0.10514424,-0.3948598,0.7677034,0.4383062,0.042747136,0.32928243,0.024850043,-0.25010225,0.5107099,-0.14914215,0.09962708,-0.17240119,-0.28917006,-0.18158105,0.11102368,1.0222377,-0.18163861,0.61835,0.13420601,-0.16944507,-0.7780387,0.34905738,0.0847629,0.021279903,-0.030347133,-0.11868566,0.028664336,0.19687907,0.5747244,-0.091310166,0.487968,0.23857133,-0.28286272,-0.17604353,0.50212944,0.026091259,-0.14163384,-0.10724061,-0.10158766,0.32375738,0.47228378,-0.41286364,-0.33642915,-0.054336205,-0.5350657,0.25611058,0.19865595,-0.35503823,0.15899745,-0.04435213,0.6480645,-0.08641346,-0.48897436,-0.24536796,-0.779604,0.09151849,-0.6467794,0.44646168,0.4199161,-0.09338409,-0.07605589,0.8014569,0.12060973,-0.26702085,-0.41864416,-0.10122247,-0.12762675,0.19282639,-0.0028890392,0.032018043,0.25354794,-0.057686057,0.18599117,0.1434528,-0.23483859,0.16066878,0.08757733,0.13212,0.63906825,-0.24581277,-0.124841034,0.12148984,0.3238556,0.26032487,-0.013460795,-0.32403928,0.0119476225,0.13933992,-0.40658867,0.27384695,0.25515231,-0.27723536,0.57459253,0.25831464,-0.18909717,0.76886255,-0.23811924,-0.040591713,0.61019707,-0.18387863,-0.008824751,-0.2247897,-0.16506046,-0.4094014,-0.2781229,-0.4543126,0.5318152,0.20759387,0.11411617,-0.5266686,0.3128386,0.17373045,-0.007163984,0.00984199,-0.538027,-0.28016868,-0.5271279,0.033682402,-0.5619222,-0.5769415,-0.35298344,-0.13915733,0.11586088,-0.5985306,-0.26469198,-0.21531828,0.15041195,-0.49940836,0.33460772,0.19915128,0.26012754,0.23960052,0.36604035,-0.22513391,0.26914102,-0.1732098,0.13669722,0.6182556,-0.06532001,-0.32603195,-0.08060977,0.88966495,0.6017591,0.210862,-0.2047652,-0.57567555,0.31744906,0.46572465,0.15007368,0.67732465,-0.11229888,0.053869683,0.14596994,0.2384533,-0.10650578,0.020273548,1.2601058
DB00014,0.10743172,0.053251572,-0.5815353,-0.35083252,0.1179424,-0.20234387,-0.1212617,-0.041195527,0.30306172,0.25406677,-0.21223104,-0.1745496,0.010039142,-0.07166939,-0.097142585,-0.25342798,-0.2525437,0.27663267,0.029522281,-0.41142324,-0.12675321,-0.6538291,-0.25048628,0.17971554,-0.115663595,0.7151447,0.08729933,-0.321264,0.19546413,-0.0933095,-0.37706235,0.15653288,0.18920258,-0.1549074,-0.12325474,0.24312015,-0.30349454,-0.5977026,0.47631347,-0.2837015,-0.2845458,-0.14322828,0.1888169,-0.3384543,0.64122283,-0.10872001,-0.18663774,0.2850038,-0.10228996,0.49970385,0.020670533,-0.0006867333,0.16733977,0.23667529,0.3510117,0.07022898,-0.15681067,-0.001971335,-0.14398432,0.05542176,-0.17316009,-0.072003715,-0.07786334,-0.068442985,-0.23478152,0.055240434,-0.20208289,-0.20964454,0.32050097,-0.16727026,-0.17656705,-0.2037841,-0.12590002,0.21928415,-0.19911876,0.25550845,-0.44759658,0.03195396,0.22929059,-0.008146768,-0.11918217,-0.03710824,-0.103226885,0.0031258843,0.4565053,-0.034088522,-0.1049045,-0.09231575,-0.34352025,0.36692494,0.06609708,0.25140315,0.14334452,-0.010097698,0.07984444,0.010149569,0.16334592,-0.33163503,-0.08244581,0.17705593,-0.0109906355,-0.15661553,-0.10843807,0.1440272,0.03573606,0.15988061,0.29226995,-0.023084706,0.35837868,0.31809154,-0.0797155,-0.18225361,-0.22354263,-0.098806255,0.20047753,0.1485622,0.346038,-0.045024663,0.1272444,0.05697308,0.17423078,0.05829117,0.08495,-0.23220323,-0.124875665,-0.0781704,0.01111936,0.039859865,-0.08874769,0.14116707,-0.100255325,0.18201715,0.008456665,-0.10960352,0.26074186,0.1282794,0.036085095,-0.37010026,-0.37094498,-0.16479468,0.23288931,0.0914691,-0.5444514,0.030285425,0.18292893,0.20521663,0.03676164,-0.16254918,-0.33936945,0.09056927,-0.24488676,-0.067571014,0.008016293,0.0399754,-0.0015873928,0.17784102,0.039417647,-0.22279498,-0.07131839,0.2431342,0.062086266,-0.68704206,0.24510461,-0.3102161,0.06763462,0.325416,0.06765098,-0.684542,0.00276787,-0.59030867,0.32175592,0.18983467,-0.02260714,0.20866524,-0.11524518,-0.2672737,0.20706865,0.22253512,0.4524125,-0.09482378,-0.21440783,0.11736799,0.25500593,0.20434004,-0.20690383,-0.09638807,0.22073358,0.03927383,-0.10431075,0.36051124,0.20805728,0.6831003,-0.37731412,-0.12237274,0.35320425,0.11131896,0.25743884,-0.043312848,-0.5353136,-0.22246559,0.020631993,0.38675663,0.026323639,-0.24836257,-0.29714373,0.033022262,0.06604125,0.58411735,0.082068644,-0.124583356,-0.059259642,0.2229949,0.044389766,0.4067415,0.10408666,0.028903505,-0.1642589,-0.35586482,0.2147113,0.7421031,0.35962912,0.018766392,-0.06402453,-0.0061329454,-0.4848551,-0.056669082,0.11086966,-0.07029393,0.17119053,-0.12477442,0.10910821,-0.043535203,0.2335615,-0.10111614,0.3196349,-0.12646207,-0.0340526,0.062085174,-0.17025073,0.24760318,-0.05532522,0.042744786,0.63966674,0.371939,0.011245425,-0.12091455,0.012384428,0.169104,0.46908686,-0.60745394,0.6084695,0.016224004,-0.19231188,0.10103395,0.07355402,-0.16207863,-0.0434017
DB00015,0.38479775,0.38560614,-0.8375626,-0.34904447,-0.20001616,-0.36523408,-1.0162297,-0.28040907,0.26787823,0.5456803,-0.07648093,0.21239953,-0.49980667,0.06766396,-0.17852502,0.29313862,-0.6047782,0.73214066,-0.019053627,-0.21486627,-0.056338925,0.08641024,-0.4040934,0.7178429,-0.06129988,-0.22772488,-0.3727403,0.80156773,0.4930289,-0.075821295,-0.2522142,0.29515103,0.13813527,-0.009843422,-0.15214445,-0.0405586,0.8365239,0.29404256,-0.6069788,0.1295943,-0.04526974,-0.3409882,0.183436,0.30435663,0.17096016,-0.018208567,0.14571826,0.07403506,-0.2583166,-0.30851316,0.025814937,0.29344144,0.062567726,0.04749092,-0.011735625,0.12612404,-0.8983568,-0.0033027106,0.24156079,0.49680334,-0.03606224,-0.06314988,0.2745652,-0.6680456,-0.301726,-0.11719773,-0.2696172,0.6026141,-0.72313267,-0.36714524,-0.42455408,-0.3042648,-0.14840889,0.22148302,0.35811165,0.44803894,0.4590442,0.24380793,0.42638066,-0.22006215,-0.044707853,-0.14806041,-0.9359891,-0.08338151,-0.07281246,-0.06541322,0.15855059,0.14984043,0.6247454,-0.33642557,0.10812416,-0.5675281,0.12928896,-0.32132217,0.07689259,0.116282366,-0.047019143,-0.20509878,-0.09892917,-0.18080977,-0.14245214,0.018593006,0.7579373,0.12962072,0.28381485,0.16476877,-0.30175906,0.04254587,0.35606822,-0.030840334,-0.26704633,-0.18419132,-0.3628493,-0.29046866,0.28759736,0.8944307,-0.28820965,0.68728226,0.3244053,-0.120450355,-0.75710607,-0.14039744,0.22008081,-0.35225648,-0.13356888,-0.1646692,0.043847863,-0.012716713,0.8478163,-0.03224707,0.7125255,0.13619263,0.10738254,-0.13498838,0.51386833,-0.08112378,-0.14988226,-0.41299212,-0.22281906,0.49683118,0.35301977,-0.3323825,-0.23040327,0.0021109555,-0.48115358,0.27857277,0.27553728,-0.44732514,-0.44580197,-0.0668703,0.61395717,-0.08834374,-0.54794776,-0.20973831,-0.6813785,0.074645296,-0.63198537,0.41071892,0.6040667,-0.20824103,0.21090724,0.82627547,0.033627328,0.013495389,-0.40296626,-0.010386464,-0.18085308,0.14939246,-0.11215779,-0.16730987,0.18042558,-0.040033113,0.01852067,0.23122862,-0.31298682,0.2558395,0.20310785,0.2063653,0.74520004,-0.41492087,-0.07649474,-0.059209768,0.1682232,0.18271996,-0.094919965,-0.33074203,0.09484936,0.35126325,-0.17053865,0.083540894,0.19898553,-0.3396241,0.85463685,0.2672222,-0.33042112,0.89521784,-0.4054329,0.37694752,0.6868301,-0.0856642,0.021852348,-0.32627773,-0.0008549012,-0.4493575,-0.27679077,-0.42872015,0.30048007,0.30243042,0.09387017,-0.62192506,0.372259,0.117783755,-0.030507583,-0.051111925,-0.8240673,-0.16694023,-0.7906329,-0.023968093,-0.45403254,-0.5542847,-0.4747504,-0.335935,0.35920006,-0.51630956,-0.19955112,-0.24500279,0.3569528,-0.35603365,0.07426874,0.33673406,0.12469913,-0.20227417,0.26158658,0.13257809,-0.103893995,0.06555835,0.006045886,0.5358098,-0.15849257,-0.034190297,-0.09812719,0.819775,0.6676463,0.31565115,-0.3025786,-0.5573001,0.13458781,0.32435346,0.3352506,0.87954533,-0.05970469,0.0033057984,0.2080337,0.43450487,-0.00552771,-0.26674688,1.1858605
DB00016,0.06104147,0.14330798,-0.12678505,-0.12644058,-0.2896649,-0.43679118,0.06539771,0.03860262,0.26482376,0.25129426,-0.08963611,1.0413207,-0.2588293,-0.1461706,-0.22400491,0.7028698,0.5094948,0.08965724,-0.015244509,-0.43210953,-0.039103407,-0.038780715,-0.50928986,-0.9754829,-0.059420075,-0.73922265,0.008040625,0.43595833,0.04956174,-0.29218197,-0.3911445,-0.20509395,-0.19109169,-0.65033007,-0.2977427,0.8211823,0.832217,0.40327328,-0.08367456,0.009595331,-0.118063554,-0.057146765,0.22378355,0.22875564,-0.26802346,0.6155939,0.21258214,0.39097792,0.06806407,-0.47498077,0.10756339,-0.21686412,-0.43903303,0.015939342,-0.94042224,0.016051484,0.022180576,0.08319425,0.0018301712,-0.83510315,0.4500691,0.29883868,0.03925243,-1.1874236,0.06843909,-0.019380862,-0.18035434,-0.25813213,0.33127487,-0.64018357,-0.5599677,0.070236586,0.1934034,0.13668965,0.8375955,1.1412423,0.4712855,0.08878489,0.02123088,-0.34235713,-0.15912595,-0.20903724,0.93259597,0.49915856,0.6571963,-0.346267,0.057368692,-0.40230632,-0.5388933,0.32213157,0.024232514,-0.21990487,0.24975307,-0.42288414,0.1362237,-0.1613202,0.066100255,-0.015539033,0.56499374,0.35900587,-0.08942115,-0.71025217,-0.597467,0.05864063,-0.40326008,0.4874228,-0.14208218,-0.2852488,0.61384076,-0.46791506,0.017497363,0.32918605,-0.29742163,-0.3038219,0.31627706,-0.091284044,-0.8638623,-0.1031319,0.028543396,0.43571693,-0.5601748,-0.08634272,0.011690435,-0.32166436,-0.18235278,-0.35971043,-0.005027862,0.25233322,-0.33840802,0.39434895,0.102875866,0.15072398,0.04911158,0.36436397,-0.30248523,0.33982834,-0.2966317,-0.1213964,-0.8095852,0.09177726,0.024973672,-0.6708203,-0.15673587,-0.27181304,0.16354552,-0.039332464,0.31354085,-0.38461027,-0.15595832,-0.4683422,-0.5026396,-0.25472513,-0.6234348,0.29366797,0.020620592,0.07564905,0.305846,-0.064981274,-0.16743255,-0.022976693,0.9334058,-0.4091786,-0.086580865,-0.3740611,0.18669304,0.0003768228,-0.60264766,-0.13097745,-0.09665252,0.05620312,0.14504842,0.13813795,-0.008844037,0.76435006,-0.10058688,-0.28627002,0.7356782,0.16326055,-0.8483126,0.10095531,0.2112531,-0.07708305,0.29305297,-0.116550714,0.39550096,-0.12513246,-0.33944392,0.6588856,-0.19112208,0.20630746,0.33246925,-0.9532447,0.9515462,0.3784763,0.22159918,-0.46466622,0.42655215,0.27719602,0.16304876,0.28375623,0.57065916,-0.92253983,0.28645712,-0.5211685,-0.08046938,-0.35548773,-1.0462071,0.123562254,0.44655123,0.41165462,-0.16787235,0.102979615,0.29636627,-0.2132495,-0.72160614,-0.25764328,0.7807698,0.27154645,0.536043,0.2955723,0.024612173,0.11033144,-0.8476393,0.15774037,0.11607984,-0.032875195,0.13161004,-0.31698665,0.011467966,-0.39961323,-0.77750194,-0.3906242,0.04808746,0.78799754,-0.42848498,-0.21651751,0.23918192,-0.23745795,0.12664393,-0.0813349,0.21125694,-0.32511252,-0.113213435,0.38305384,-0.43645725,0.45580763,0.46255496,0.35425246,-0.5364457,0.24937351,-0.33703703,-0.070769414,-0.22222008,-0.21992682,-0.27260762,-0.28475922,1.6466535
DB00017,0.25970617,0.34052783,-0.32642555,-0.8045428,0.275267,-0.36008328,-0.90445656,-0.05852488,0.38300174,0.3733314,0.12839332,-0.09022036,0.45566857,-0.2821098,0.28492737,0.060441907,-0.5180557,-0.14607278,-0.28435704,0.6805835,-0.52505875,0.1756187,0.043302514,0.29168853,-0.18703234,-0.052698467,-0.33118346,0.85990214,0.07205874,-0.17170365,-0.4001937,0.051613092,0.21062581,-0.015915915,-0.30638525,0.39778373,0.9831613,0.030815907,-0.43229234,-0.49005115,-0.5806823,0.056304574,0.21169224,0.8422357,-0.9418887,-0.14434177,-0.22288771,0.10849799,-0.30598658,0.85083634,-0.35501787,-0.18272844,0.4230165,0.23628208,-0.7339026,-0.05138107,0.334861,-0.31661505,0.47381407,0.2547769,0.56660146,0.06870362,0.12090834,-0.9077929,-0.27638984,-0.13440952,-0.78042763,-0.21941894,-0.21440518,-0.18672979,-0.43615514,-0.40580368,-0.16957772,0.12382462,-0.4391543,0.05457309,0.19681108,0.2043762,-0.047941912,-0.36363822,-0.3515404,-0.12759602,-0.3639178,-0.2203216,0.7106134,0.56528115,-0.26516324,-0.084265254,0.7565175,0.078153506,-0.09526983,-0.2230387,-0.3776035,-0.019144833,-0.3979503,0.20203958,-0.3761416,-0.22673032,-0.12369139,0.38144675,-0.13432224,-0.11171847,-0.140934,0.6299433,0.9776688,-0.032910135,0.009059893,-0.16299385,-0.68130577,-0.71868724,0.26457223,0.08553813,-0.33912638,-0.2627273,0.16279045,0.4022702,-0.5725431,0.3740935,0.55345327,-0.035010915,0.13114525,-0.5682291,-0.08355359,0.13159336,-0.23716708,0.22298151,0.7928675,-0.27179807,0.11225115,-0.7959007,-0.033128254,0.24920101,-0.11753921,-0.068077214,0.2378509,-0.046411265,0.21405937,-0.33218002,-0.62132156,-0.30713853,0.3203659,0.7305174,-0.25965038,0.3481376,0.51869726,0.5493826,0.1897825,-0.3405919,0.59658366,-0.32436657,0.24055286,0.37108684,-0.3095138,0.36880273,-0.623713,-0.39343363,0.57576853,-0.10787949,-0.7685795,-0.6122168,0.5867984,-0.35072583,-0.21196069,-0.35774413,0.14229207,-0.9254652,-0.020916268,-0.45652366,-0.16758454,0.14048316,0.19504821,-0.37414154,0.06456795,0.35525692,-0.23926742,0.21854101,0.21161798,0.31912577,-0.16402997,-0.13257685,0.26163048,0.12746708,0.04095636,-0.23337042,-0.06392518,-0.17693304,0.3547958,-0.4294939,-0.14729811,-0.3513576,0.46359372,0.14687186,0.2645834,-0.02782047,-0.7004675,0.101377055,0.11455206,-0.38336712,-0.2392917,-0.4781918,-0.3623284,0.1796083,0.19424164,-0.15652835,-0.15219033,0.43125722,0.41540366,0.24648987,-0.26934865,0.72917104,0.82687026,0.2667877,-0.11132203,-0.53304666,0.3849407,-0.603145,0.90916485,-0.48012877,0.32149902,0.25802746,-0.077588506,0.015209933,-0.57128066,0.1933309,0.58463943,-0.60591096,-0.048922565,0.356896,0.14889981,-0.049534127,-0.6615434,-0.027183803,0.10961039,0.3443721,-0.13577503,-0.17233886,-0.35384327,-0.7207399,0.2940788,0.26875106,-0.3343055,-0.17546457,0.020125614,0.18621835,-0.19842884,-0.34178406,-0.52827615,0.2704016,0.048592236,-0.29985422,0.3536829,-0.1512875,0.40359348,-0.5149598,0.3150806,0.33513728,1.7115902
DB00018,0.013215575,0.23804924,0.3379433,-0.09172397,0.3415357,-0.30600086,0.46645156,0.049314696,0.19569957,0.27398232,0.30646878,0.6005473,0.030732036,-0.10947071,0.2944828,0.71797496,0.029874139,-0.6363282,-0.037193313,0.56756604,-0.5309687,0.75836366,-0.29019544,0.0049262214,-0.18413833,0.383533,0.32847083,0.43077227,0.17302538,0.10206181,-0.5196646,-0.139853,0.04409942,-0.22769941,0.50838447,0.4372321,0.1639485,-0.65451515,-0.42012772,0.22885245,-0.2032864,-0.31859148,-0.24120478,0.031196775,-0.58429635,-0.42673147,0.18851653,0.08954803,-0.26373988,-0.17059094,0.04125224,0.14813824,-0.42980418,0.3204736,-0.39069244,-0.26423386,-0.39417216,-0.040506165,-0.5836079,-0.9272735,-0.003283781,0.21752991,0.11922848,0.29766402,-0.023095747,-0.13052091,-0.64091164,0.19326991,0.2493676,-0.33398402,-0.2395887,-0.14266926,-0.34410375,-0.048500784,-0.28261504,-0.48629767,1.0388447,0.24130292,-0.28793046,-0.17176452,0.073409684,-0.3821656,0.119747184,-0.122530736,0.1547834,0.123794,-0.0062061176,0.26179317,-0.2546687,-0.28673875,-0.10189889,0.36311084,-0.3151915,-0.08478093,-0.0002126012,0.38500527,-0.044031326,-0.46631825,0.30381238,-0.064385936,-0.5119838,-0.40806958,0.45294192,0.2154301,0.08505582,-0.1438259,-0.110834226,-0.066431426,0.3357178,0.24763034,-0.00729571,-0.038838394,-0.13339178,-0.21636581,-0.11177938,-0.29308462,-0.6997172,-0.14601088,0.19820322,0.29529983,-0.025594587,0.19584753,0.22578913,-0.1897342,-0.38216326,0.03017387,0.15273863,-0.18667318,-0.07848769,0.25061396,-0.024134433,0.14573908,-0.09119005,-0.048681192,-0.094181225,-0.26333874,0.08876368,0.018048955,-0.31587335,0.3514102,0.1698223,-0.34963086,-0.40160424,-0.10947392,0.40941906,0.2865455,0.1526903,-0.15975836,0.30877954,0.009031226,-0.20734559,-0.076695494,-0.24887136,-0.2854958,0.1538304,-0.73868203,0.124711,0.2049515,0.5247547,-0.3873053,0.3040372,-0.48140642,0.19917953,-0.3465506,0.32673305,0.32920456,-0.21291481,0.5482725,-0.55310184,0.8043592,0.083437845,-0.16947511,-0.08694645,0.42841813,-0.35130847,0.15230723,0.25878966,0.31006545,-0.37445632,0.13543485,-0.26780754,0.065125056,0.33499947,0.009012883,-0.051750284,-0.36821458,0.18387069,0.45224586,0.12721309,-0.12249178,0.46767086,-0.22985065,-0.40767467,-0.11885034,0.6452924,-0.3595463,0.7529769,-0.024485923,0.4525371,-0.7372726,-0.010898168,-0.15237017,-0.07701884,0.040989712,-0.06945898,-0.025256844,-0.10318457,0.085770406,-0.12435108,-0.86730415,0.27633262,0.30982053,0.14025821,-0.06784503,0.6289564,-0.10026347,0.5142253,0.06478856,0.2985414,-0.0063349553,0.4327788,-0.08491475,0.07120595,-0.41649818,-0.28471357,-0.25215358,0.09518951,0.12806346,-0.13321306,-0.06632222,0.37939677,-0.15092303,0.19552602,-0.18329403,-0.47466433,0.0071359007,0.0061580255,0.45413777,-0.09195782,0.20365298,0.72074,0.35500348,-0.2618383,0.41165397,-0.036608662,0.14794669,-0.14758974,0.3663204,0.28458902,-0.47573406,0.38542604,0.07356088,-0.4731561,-0.4239172,-0.08393718,0.079625115,1.4843351
DB00019,0.28013068,-0.005880338,1.0893103,-0.206397,0.2218518,-0.27569652,-0.031144142,-0.08339488,0.12408106,0.87053305,0.3232885,0.2757611,-0.30770317,-0.7068861,0.67765653,0.41810274,0.09750634,-0.44500726,0.17440492,0.7547,-0.61942106,0.60686934,0.032000564,0.28791255,-0.09586693,-1.0535729,0.35886973,0.31150517,0.21987829,0.18391374,-0.22452536,-0.07707257,-0.6763064,-0.118073255,-0.20732018,0.67095584,-0.22877413,0.4928457,0.7201939,0.9064732,0.0438905,0.0010945753,-0.19998279,0.896014,0.9495138,0.07184532,0.39011627,0.694705,-0.14306022,1.0882978,-0.7054455,0.41108507,-0.6107618,0.57130915,-1.1543065,-0.4472936,-1.2511846,0.056754537,0.6296786,-0.23329568,0.50074285,-0.022631789,-0.4927336,-0.3371233,0.024729544,0.10226242,-0.45397678,0.1903282,-0.4605625,-0.15242667,-0.26822716,-0.45378104,-0.067355484,-0.13918298,-0.2658865,-0.22657825,0.3975578,0.31246877,0.36224243,0.042979978,0.32195273,-0.05783619,-0.25146186,-0.27054748,0.47196677,0.7439019,0.37051144,0.3909708,-0.83673376,0.8506221,0.52896464,0.10419592,0.49216646,-0.3240116,0.64073277,0.5825455,-0.3327349,0.14287041,0.43549865,0.027108748,-0.7001748,-0.35035473,0.36779857,-0.32917774,0.09738122,0.38024244,0.4023993,-0.06781483,-0.33764556,0.41525668,-0.4793933,0.037841953,-0.45288354,-0.12879463,-0.09757787,-0.057495564,-0.3439222,0.42262623,0.23847175,0.906985,1.4082265,-0.7446227,0.31992432,-0.91152203,0.020183053,0.84356964,0.073718056,0.16222876,-0.89407927,0.51199806,-0.714795,0.29038566,-0.409874,0.2921198,0.91425115,-0.10035048,0.30209342,-0.5387934,-0.25263342,0.53579795,0.85403347,-0.89481336,0.10789429,-0.0669038,0.057484787,0.12715635,0.5526506,-0.76227254,-0.56632125,0.9379995,0.9730415,-0.43568632,0.21350563,0.4499656,-0.08152471,-0.6693427,-0.62622553,-0.45879728,-0.3204861,-0.2903012,0.3947793,-0.480106,0.5384337,-0.1647717,0.65270114,0.1896028,-0.7301288,0.37191236,0.19313002,-0.33234477,0.19700028,-1.1410778,-0.20034516,0.121892974,-0.818622,-0.032394376,0.035773773,0.58563304,-0.15497568,-0.6448566,-0.25592816,0.11430319,0.10266169,-0.09376857,0.55432725,-1.037675,0.13636042,1.4472835,-0.01107418,0.0038838603,0.90228134,-0.69028383,-1.240854,-0.058116954,1.2191741,-0.8946575,0.5334877,0.76120436,0.5615141,0.25093755,1.0260181,-0.6388507,-0.38412744,0.37091428,-0.04670241,-0.7343797,0.19795883,-0.018188352,0.008777501,0.40670872,0.28985408,0.45198074,0.56580555,0.649414,-0.73007095,-0.27637845,0.33339843,0.4702946,0.15511814,-0.43797982,-0.090728864,-0.028801823,0.21465191,-1.0401376,0.020871116,0.25665474,-0.06168325,0.8163208,0.2412196,0.9748425,-0.07300198,-0.026350453,-0.18412986,0.24674194,-0.16436163,0.4651862,0.022318501,-0.3860251,-0.11405943,1.1902171,0.49509925,-0.1330589,-0.42616165,0.5669056,0.029161865,-0.050617665,0.3860529,0.2754384,-1.546003,1.042216,0.40578163,-0.2732774,0.053877607,0.3014148,0.23685512,-0.018573537,1.7909542
DB00020,0.49041057,0.2778434,-0.72878313,-0.2623427,-0.13137816,-0.015252145,0.20047456,-0.51057607,0.6684065,0.21641098,-0.37271684,0.49757186,-0.089454845,0.26731682,0.03920946,0.47610697,0.6188255,0.47942975,-0.49276245,0.2967228,-0.1451781,-0.33108625,-0.16784352,-0.346237,-0.3326116,-0.34572357,0.8938968,0.040564265,0.8218974,-0.12154371,0.7554388,0.034017205,0.08604621,-0.8631001,0.7362753,-0.20074429,0.8478539,-0.00028991737,-0.44106954,-0.30086604,-0.89408267,0.12059025,0.058781102,-0.20766348,-0.6792952,0.5761561,-0.2310906,0.24877495,-0.33978954,-0.20545924,-0.0039787553,0.28279978,0.22672537,0.25648248,-0.89314395,-0.3369858,-0.37242797,-0.09122526,-0.60601467,-0.30227694,-0.20326175,0.08006208,-0.17782664,0.20867175,-0.48890325,0.23612902,-0.21932647,0.09705249,-0.45937455,-0.34934074,0.4146107,-0.19075683,-0.88760406,0.015540896,0.08158631,-0.40272415,-0.34698856,0.24087183,0.064771555,-0.3853505,-0.5158464,-0.5713464,0.9107933,-0.06380472,0.011240438,-0.09191506,-0.34995288,0.16027324,-0.12191665,0.40165925,-0.0059669963,0.042435892,0.26519182,-0.13405223,-0.08151316,0.45873407,-0.3265432,-0.3468356,0.3454335,0.33767238,-0.12171951,-0.31067863,-0.48490766,-0.026716873,0.035313487,0.14908722,-0.014410874,-0.04312473,0.9112165,-0.6072645,0.0067928927,0.34002933,-0.30169985,-0.6867998,0.042078022,-0.65491456,0.5386987,-0.8741967,0.6361389,-0.26324677,0.23440939,0.12653041,0.024624933,0.11952233,-0.10006778,-0.2378619,0.14967857,-0.08668217,-0.51464534,-0.22257164,-0.40347096,0.3651018,-0.23923612,0.33388224,-0.7718399,0.03658127,-0.16319019,-0.4173444,-0.7463247,0.6752794,0.5675457,-0.63329893,-0.75632226,-0.24836126,0.39911416,0.1292345,0.4977175,-0.74439394,0.1691793,-0.16451125,-0.18772064,-0.2970893,-0.8856109,0.3778533,-0.4788068,-0.67128605,-0.5618156,-1.3573681,0.5371694,-0.42897493,0.2412466,0.46229148,-0.1107972,-0.3190554,0.031685874,0.5178726,-0.077279456,0.8471329,-0.25514597,0.21214227,0.21997693,-0.07198645,0.2031524,0.529244,-0.21565983,-0.6849897,0.2154905,0.18059617,-0.5969606,0.19465536,0.07575971,0.0054591894,0.0056363423,0.14458603,-0.13408506,-0.19227841,0.14974055,0.8164221,-0.27873075,1.0123701,0.37499237,-1.003161,0.03031804,0.12443724,-0.83399093,0.086473,0.88086677,0.25574136,0.20100918,-0.18465908,0.018867487,0.08131054,-0.26171744,-0.13112338,-0.061612878,-0.6974642,-0.010074524,0.29791468,-0.52828985,0.23009881,0.25944117,0.6546751,-0.06013923,-0.48005646,0.334762,-0.42136937,0.61895096,-0.24770856,-0.40969267,0.21815518,-0.11035334,-0.49209058,0.025308061,0.15438537,-0.12810461,-0.27667576,0.33508572,0.28566012,-0.17037056,0.2530594,-0.16136457,0.42102483,0.2391066,0.27933282,-0.013454565,-0.02187276,-0.22555602,-0.45225617,0.4040041,0.28845945,0.6438845,0.35311282,-1.0010202,0.68956614,0.16269065,0.83683896,0.7506374,0.37455177,-0.2644721,0.38299894,1.1281719,-0.12581846,-0.17069338,-0.054255255,-0.071566395,0.37115863,1.5678375
DB00021,0.18560395,0.3959649,-0.46559072,-0.538031,0.02151986,-0.48142207,-0.34955975,-0.13789982,0.37833902,0.37847355,-0.19303025,-0.15132187,-0.047605272,-0.050892714,-0.16343778,-0.4083838,-0.21964411,0.047235616,-0.33007953,-0.1394651,-0.4792728,0.07464149,-0.40234753,0.87960166,-0.34895933,-0.161348,0.0370443,-0.8162112,0.3675915,-0.1228378,-0.22829814,0.3272691,0.38408855,-0.3573361,-0.6283952,0.5653135,0.052546766,-0.17588168,-0.33177456,0.90708786,-0.32066032,0.015255015,-0.011692898,0.21194693,-0.018358959,0.48269144,-0.10567783,0.23799364,-0.32972118,-0.75508255,0.25481233,0.27023935,-0.06907224,0.08826456,0.31547117,0.01801438,0.04313381,-0.008899201,0.721897,-0.53114706,0.6482314,0.1947554,-0.08524507,0.20456742,-0.2684413,-0.0079803625,-0.43383288,-0.69252855,0.65806955,-0.42084417,-0.32105377,-0.14816971,-0.43704966,-0.019546427,-0.11401148,-0.15735835,0.18177533,0.20790537,0.28887945,-0.11916584,-0.21799171,-0.2973067,0.22924009,-0.018949464,0.3067259,0.11857404,0.17421971,0.1218708,0.78195006,0.5441388,0.043033972,0.61065614,-0.16164812,-0.3862353,-0.18160255,-0.19002952,-0.017886596,0.6984515,0.007504424,0.1779393,-0.17160918,-0.17860132,-0.2657131,-0.0056927362,0.12941511,0.19447263,-0.08341323,0.10408631,-0.020786744,-0.43284848,0.123448014,0.22741802,-0.26681897,-0.17301676,-0.041581098,-0.12612337,-0.22786215,-0.36305296,0.08376151,-0.12416562,0.15258862,-0.08200652,-0.1116785,-0.08263535,-0.298301,-0.033911124,0.18715239,0.07482314,0.8667931,-0.088465385,0.18059611,0.37068123,-0.20201814,-0.06953483,-0.72155267,-0.33666816,-0.06608751,-0.27344295,0.56056917,0.7018503,0.07202115,0.40023616,-0.2691368,-0.16672692,0.068489306,0.24240501,0.32486126,-0.21703163,0.1529208,0.09658685,-0.6072839,-0.19046588,-0.25048655,-0.050653618,-0.16730408,0.58309853,0.19995405,-0.082552515,0.0018816076,-0.08019061,-0.7370257,-0.884936,-0.09874879,-0.16000806,0.0014640595,-0.30490643,-0.40631327,-0.02944846,-0.36017007,-0.032366026,0.33531603,-0.01638195,-0.12747152,0.31946993,-0.30294538,-0.05451121,0.125098,0.1995554,-0.33148637,-0.06527334,-0.20040958,0.05669022,0.4785899,0.27964777,-0.08410452,-0.33455816,0.24909699,0.53630966,-0.025085332,0.2048847,0.2758429,0.6895499,-0.3089549,-0.2107302,0.45725816,-0.68115616,0.5055945,0.25299498,-0.38557035,-0.24187337,-0.5919258,-0.4058599,0.015040706,0.027293505,-0.37950507,0.31585872,0.72458744,0.42927572,0.2308884,-0.20337756,0.05750193,0.24249907,-0.017835319,0.45574585,0.33781138,-0.33351532,0.77726954,0.66375643,0.89238644,0.30429256,0.6271095,-0.12100978,-0.5027886,0.31919727,-0.3897034,-0.44242486,0.31022918,-0.4242838,0.016036222,0.09858752,0.76466316,-0.16788615,0.42291674,0.12500934,0.61327934,0.09210691,-0.09920666,0.18254866,-0.018737717,0.061328277,-0.8478152,-0.35881802,-0.4223433,0.4351767,-0.4451533,0.35408556,-0.4521934,0.8001775,-0.06848479,-0.7361547,-0.612532,0.029933974,0.038803164,-0.014592253,0.11674498,-0.017302975,1.4643711
DB00022,0.5487205,0.42092913,0.1265441,-0.39703864,0.042711716,-0.2862724,0.5273851,-0.018144613,0.22967134,0.07874908,0.03523407,0.22159751,0.16874784,-0.18796948,-0.26326242,0.2526901,-0.20884043,-0.2026535,0.07805523,0.36450744,-0.2491986,0.04443936,-0.30031204,0.5143459,-0.2800436,0.1939095,-0.25298065,-0.057123285,0.35184744,-0.029764943,-0.20036058,0.21401368,0.092127964,-0.10098743,-0.38661477,0.5926158,0.724336,-0.5280228,-0.31501746,0.5630659,-0.39094287,-0.086196095,0.2339124,-0.20330794,0.20893614,0.0054554637,0.029017325,0.38002092,-0.092635445,0.39378706,0.0344738,0.15653087,-0.10537098,0.08797089,0.11186432,-0.18370724,-0.53026557,0.036524527,-0.1291508,-0.4904619,0.28837547,-0.09306531,-0.046333566,-0.3087599,-0.08127986,-0.095330596,-0.41534775,0.2860614,0.11951266,-0.15381603,-0.35938755,-0.19030632,-0.26692483,-0.08358119,-0.055766784,-0.56334376,0.29437888,-0.058724556,0.2411011,-0.40291294,-0.2497857,-0.19076595,-0.16472492,0.08300543,-0.51049626,0.14377989,-0.04921561,0.11702706,-0.22309832,0.14817032,0.1006369,0.12382299,-0.18574667,-0.12728305,-0.05970382,0.07742317,0.17108183,0.053381648,0.043535426,0.05986162,-0.088424094,0.010626773,0.14188382,0.45192975,-0.11765717,0.32175294,-0.26116762,-0.06613774,0.10687765,-0.5651078,-0.0025200956,0.51036227,-0.347884,-0.26227435,0.11015671,-0.008631568,0.32431877,0.117477685,0.37436482,-0.2780593,0.10343916,0.049450867,-0.11186408,0.087818734,-0.16327178,0.028091708,0.0916752,-0.14131035,-0.09057101,-0.21248874,0.5226587,0.22013326,0.06713982,-0.055902753,0.06594342,-0.13704108,-0.23510891,-0.20080826,0.16126713,0.3608166,0.33938137,0.34255716,-0.26263487,0.036060307,0.05751251,0.13872452,0.28597558,-0.30733433,0.021810498,-0.0950467,0.19255051,0.1478743,-0.45637447,-0.039755877,-0.027045006,0.093194485,-0.23763494,0.23991603,0.8073306,0.58295184,-0.14280552,-0.39491048,-0.11442113,-0.10840029,0.065864906,0.3570911,-0.057347983,0.0026374855,-0.28168482,-0.18062702,0.19953099,0.18346334,0.012392009,0.2993599,-0.069167025,0.28725594,0.33325666,0.18029624,-0.32792565,-0.15382794,-0.008354917,0.025469922,0.12811053,-0.019488398,-0.104169495,-0.18283778,0.10101075,-0.089554176,0.10724862,0.18738449,0.34885392,0.44232523,0.08104638,-0.13942486,0.628029,-0.53132975,0.511975,0.04567278,0.24883103,-0.20975578,0.72183704,-0.007079165,-0.049946085,0.5199389,-0.32732785,0.12945415,0.30942255,0.16129535,0.25579226,-0.5156027,0.1330953,0.19143093,-0.16625042,0.1970433,0.12401281,-0.01968314,0.51584595,-0.19367336,0.18914579,0.17877118,-0.007059673,-0.20270693,0.26510417,-0.36836556,-0.4598889,-0.121951625,0.04270299,-0.11522865,0.023033664,0.075748615,0.454688,-0.12841554,0.42875814,0.1189242,0.12854634,-0.0040116454,-0.008067514,-0.26202738,-0.0038175017,-0.17116323,-0.1779584,-0.23478128,0.2584986,0.031075299,0.1249937,0.28922147,-0.19964054,0.45193598,-0.54744965,-0.22062868,-0.21803333,0.09719149,0.10409052,0.070210434,-0.24413256,-0.09631362,0.4768995
DB00023,0.15233137,0.9082858,1.1686462,-0.062797956,-0.37708586,0.34976515,0.2936858,-0.51888543,-0.102239564,0.058507234,-0.3168525,1.1916002,0.08516492,0.42698804,0.13197501,1.0276955,0.85130405,0.5333108,-0.03184691,0.20849267,-0.58556557,-0.30103973,-0.1984559,-0.49646595,0.6876824,0.09750633,0.7098843,-0.28980628,0.1816225,-0.42489478,-0.7134336,-1.0834749,0.18148693,-0.23010476,0.9780858,-0.16503696,0.14052281,0.34917638,-0.46239305,-0.3823031,0.50719965,-0.2808277,-0.09497906,0.27152905,0.72490686,0.70460975,-0.31551346,-0.43710077,-0.20995677,-0.322004,0.20205018,-0.018092506,0.07180417,-0.15354753,-0.03640783,0.7982168,0.16748421,0.20576684,0.32763174,0.1061278,-0.092155084,0.22045393,0.19009827,0.1939546,-0.649154,-0.08169357,-0.11504662,-0.11230768,-0.610261,-0.11454463,0.070399486,-0.7373307,-0.7536118,1.2177656,-0.537807,-0.37097266,-0.27243692,0.6500369,0.69631124,0.08159583,-0.2578944,-0.08878541,0.24673693,-0.23077835,-0.34762394,0.43904924,0.7269006,0.8049323,0.36324134,0.21190372,0.8761109,0.5224557,-0.23764963,-0.043230303,-0.38703892,0.959004,-0.0523915,0.4567876,-0.045855533,-0.1363843,-0.32671455,-0.2263822,-0.25206172,0.3868712,0.52334774,0.804849,0.42182297,0.4666397,1.0596572,-0.2753569,-0.71777153,0.30930224,-0.586319,-0.004609178,-0.23657623,-0.8366915,0.34601444,-0.16696802,0.63779026,-0.13274461,0.4339943,0.20208082,-0.1255238,-0.0009231359,-0.045334425,-0.088026926,0.31067625,-0.75701976,-0.43710545,-0.8937887,-0.23044285,0.39110917,0.0062297517,-0.71062666,0.2356481,-0.5100472,0.77499014,-0.65142787,-1.0031881,-0.57553005,0.14881356,-0.43602276,-0.5112594,0.056916006,0.052625813,0.27649447,-0.026207158,-1.062997,-0.17013812,-0.22883287,-0.23232506,-0.45923617,0.6097746,0.72072864,-0.07528449,0.1650251,0.5270481,0.620155,-1.0735232,-0.7225344,-0.3855536,-0.49711236,0.15875107,-0.250413,0.034029946,0.028828066,-0.4312886,-0.440342,0.1184488,-0.38992476,0.31399107,-0.46572998,0.46841452,0.1756805,-0.2682037,0.8111231,0.36855516,-0.22519115,-0.6120215,-0.7515564,0.042706173,0.08494351,-0.37587413,-0.54803455,0.1575298,-0.105091155,0.38988727,0.34465572,-0.2437803,0.40209773,0.83849925,-0.68456626,-0.07748664,0.3754936,-0.6631569,-0.23686141,-0.39584672,0.17204612,-0.21527608,0.53355986,-0.92692906,0.6921962,0.22241573,-0.3916847,0.29519963,-0.025384445,-0.657661,0.31216708,-0.39406154,-0.56778795,-0.69516146,0.8808009,-0.6212432,-1.086675,-0.6790052,-0.27556634,-0.095201224,-0.51784396,0.5503032,-0.42118782,-0.23547599,-0.20388108,0.34418264,0.88314146,0.605183,0.17923489,0.22340038,0.3524012,0.027939903,-0.7079323,-0.7096721,0.12614149,0.49825144,-0.3586591,-0.2902161,-0.015160543,-0.4584992,-0.2973971,0.1795658,0.055064857,0.13550101,0.0824094,1.296007,1.0117043,0.030243302,-0.01893132,0.3784512,-0.5683685,0.03147105,0.58479017,0.802153,-0.2144219,0.1206244,-0.0017405599,-0.06783376,-0.0078745885,1.887129
DB00026,-0.04119171,0.2766493,-0.06797224,-0.3049502,0.3292732,-0.39171678,-0.22505017,0.1574642,0.23763375,0.26727724,-0.03497658,0.3521789,-0.018576022,-0.09546597,-0.048164334,0.5284458,0.63816655,-0.3713421,0.05428902,-0.33878103,-0.24277666,-0.5050541,-0.41599864,-1.0469027,-0.40430653,-0.31984505,0.8540889,0.30335337,0.2815405,-0.017888969,-0.3720387,0.48709425,0.20314509,0.13163033,0.6547119,-0.13478246,0.46562347,0.8420994,0.23486374,-0.25591618,-0.20634225,-0.2614493,-0.24158669,-0.061621293,-0.6155031,1.106348,0.038289674,0.25852343,-0.1716157,0.50906116,0.028081171,-0.19771127,-0.1329237,-0.011578303,-0.9139232,0.03237251,-0.27717373,0.037349224,-0.0053685345,0.2358528,0.48636588,0.06794732,0.115452774,-0.5294564,-0.5289405,0.07862863,-0.2428047,-0.73987985,-0.7848175,-0.27153778,-0.4015233,-0.10722139,-0.040610313,0.026005452,0.053712938,-0.49394903,0.5545564,0.22146074,-0.3023717,-0.43161857,0.020770464,-0.0004951331,1.1736699,-0.061319295,-0.07460509,0.07852078,0.10556433,-0.08730992,-0.20651644,-0.54138094,-0.022442963,-0.36612126,0.071299635,-0.039018303,-0.06621316,-0.13550298,0.13805033,0.62752354,-0.13522382,0.07411508,-0.52000725,0.27194372,-0.9041254,0.19549607,0.21322319,0.021942567,-0.010903354,-0.099407926,0.91545403,-0.580643,0.08495087,-0.032687116,-0.16029072,-0.35024434,0.41021296,0.45589045,0.2861774,0.040378377,0.4267543,0.1585136,-0.5157543,-0.12625608,-0.004464685,-0.14512831,-0.22396813,0.097959995,0.40605962,0.19072449,-1.1889629,-0.021675318,-0.66794395,0.068375275,0.10745649,-0.1078772,-0.68734515,-0.07081093,-0.16564175,-0.45649767,-1.0085523,0.2595291,0.25024027,-0.43613556,-0.08814173,0.007004479,-0.48281267,0.017517056,0.07118062,-0.18813881,0.9007353,-0.12914427,-0.57638973,-0.31121415,-1.2041935,-0.0024285517,-0.6680432,0.07589343,1.0062056,-0.7741283,-0.24704033,-0.17069755,0.889281,0.17505151,-0.08350283,-0.15751678,0.21893291,-0.27188182,-0.13380656,-0.16225617,-0.13158655,-0.5223817,0.20378757,0.089762814,-0.12108557,0.43348837,-0.2237403,-0.8280016,0.33801758,0.40434083,-1.0962735,0.07662853,-0.23168612,0.09342102,0.108441725,0.4334171,-0.015182309,-0.16728869,0.1347312,0.77024764,-0.16251169,0.074733734,0.03488099,-0.92977715,0.58425355,-0.05832823,0.27379057,-0.29847765,0.7905633,0.14257151,0.3042611,0.009052246,0.9650881,-0.7711444,0.024123302,-0.8156044,-0.08219936,-0.30158308,-1.0841695,0.16773069,0.2586072,0.7387641,-0.08261992,0.06620133,0.14935842,-1.0759931,-0.4100083,-0.124092415,0.862212,-0.43271545,-0.6622263,1.0407648,-0.1203389,-0.20030136,-0.41297358,0.5568197,0.41198435,-0.14442587,-0.042287514,0.35933095,0.123523325,0.029749725,-0.76298773,-0.0020794505,0.032619853,0.48399913,-0.50985897,-0.13509196,-0.017523807,-0.812847,-0.15207967,0.101232365,0.86889416,-0.38952968,-0.3588353,0.034091726,-0.34253204,0.36708027,0.62727535,0.20733741,-0.22342612,0.8085476,0.39092344,0.09958204,-0.14281963,-0.27135023,0.03157824,-0.14059573,1.6747057
DB00029,0.49190548,0.23680162,-0.6140641,-0.2492,-0.10652736,-0.42989206,-0.8135876,-0.08382213,0.3898123,0.43518662,-0.034210086,-0.15421115,-0.2811469,0.023032546,0.08798238,0.06419572,-0.5249886,0.7062374,-0.24988073,-0.046561856,-0.13937522,0.2530818,-0.041529473,0.5037814,-0.02805114,-0.4209625,-0.15991805,0.68483406,0.3329979,0.009965905,-0.16208284,0.50300723,0.25891867,-0.2619671,-0.056185175,-0.35654828,0.5256624,0.28483915,-0.66121227,0.16659106,-0.12607484,-0.3839364,-0.009683568,0.14794455,0.2888149,0.1446175,0.40681028,0.3803505,-0.24807182,-0.22345337,-0.023031138,0.16952942,-0.18405855,0.1773577,-0.2588554,0.032763552,-0.49602976,-0.13599439,0.3842065,0.47457075,-0.07843219,0.08185361,0.016746366,-0.58866733,-0.3304982,0.009216006,-0.27365038,0.5733269,-0.77613,-0.18453804,-0.010264181,-0.3664109,-0.30412328,0.22757286,0.19664526,0.4403661,0.21163289,0.2563886,0.07485803,-0.19260605,-0.16261452,-0.2917494,-0.80662495,-0.27431387,-0.09809679,0.14223419,0.16355504,-0.16339876,0.8579597,-0.4673453,0.08075644,-0.471045,0.05646788,-0.27281117,0.06653996,-0.028162586,0.12978199,-0.33771622,0.018294478,-0.06605302,-0.22547172,-0.09460766,0.7254915,0.11348391,-0.08402519,0.04381172,0.11862568,-0.04691911,0.5115305,-0.044029087,-0.03887079,-0.24559784,-0.41983756,-0.16628118,-0.08687947,0.9058112,-0.34434006,0.5857259,0.45404494,-0.11050224,-0.8025044,0.03308432,-0.2110594,-0.09425787,0.061352078,-0.27967593,0.073361136,0.04243404,0.6357777,-0.1406761,0.6974916,0.3091709,0.064035,-0.112377286,0.3457746,-0.01865675,-0.16616438,-0.2442371,-0.061846916,0.36962524,0.36380604,-0.6081422,-0.2375099,-0.024476958,-0.3099184,0.26576754,0.27514595,-0.27431563,-0.058004912,-0.021376938,0.79178244,-0.12711643,-0.46509758,-0.22472054,-0.64534014,-0.0857667,-0.39818373,0.73369235,0.316106,-0.10044142,0.021724615,0.79775333,-0.02521377,-0.18554085,-0.4273359,-0.0054949797,-0.30468172,0.25631285,-0.26237825,0.11763793,0.12500647,-0.08981362,0.1739141,0.38030446,-0.4229751,0.4618738,0.16080943,0.39134723,0.58030933,0.059289265,-0.121435314,-0.0040089246,0.24837565,0.19740532,0.042817187,-0.40387145,-0.047498226,-0.040273186,-0.3040903,0.25065747,0.21336722,-0.27983168,0.7293512,0.21981192,-0.28379083,0.7974635,-0.11164314,0.1423636,0.5471825,-0.34753755,-0.10184562,-0.24793772,-0.10316798,-0.4810799,-0.43522316,-0.5102323,0.39302275,0.2816138,0.29204914,-0.38347545,0.084667265,0.18389434,-0.059116628,-0.13586937,-0.9162142,-0.41465807,-0.6527871,0.04675703,-0.47554138,-0.685815,-0.42994595,-0.07241071,0.3681702,-0.65950507,-0.3162202,-0.39171034,0.28875703,-0.345834,0.017592454,0.17391899,0.10251318,-0.26866633,0.25403655,0.1456636,0.02242189,-0.32059392,0.15476185,0.67063534,-0.05932633,-0.11472606,-0.04744217,0.855309,0.5924651,0.2186361,-0.063585274,-0.76468956,0.0064455285,0.2800878,0.18514214,0.86785936,-0.081503205,-0.051353205,-0.05882577,0.15220022,0.049555216,-0.21783914,1.082759
DB00030,0.26192737,0.14020523,0.22584039,-0.39418188,-0.18225072,-0.32586285,-0.32206753,0.0015124822,0.14029078,0.13318825,-0.04490189,0.23423441,-0.29002315,-0.04584868,0.112463444,0.013872433,-0.87213796,0.28829542,-0.1693861,-0.27179527,-0.28580198,-0.24587016,-0.3632864,-0.1682117,-0.13155192,0.072862335,-0.12874494,-0.11988525,0.25062308,-0.17434333,0.39796516,0.11039662,0.21399118,-0.37708062,0.29005766,-0.10798644,0.26911554,-1.1387628,0.7676536,-0.34969208,-0.02357051,-0.08977804,0.048346568,-0.13720813,0.18261188,0.30294457,0.25404143,0.23662145,-0.20454115,0.003223957,-0.11229016,0.0009416808,-0.023404371,-0.17462921,0.15734884,-0.115774415,-0.12607354,-0.013078977,0.1886204,-0.32399222,-0.34390888,0.0316085,0.11883869,0.18594006,-0.076191284,-0.14870705,-0.49902984,-0.6533594,-0.021678377,-0.08316484,-0.58089197,-0.079391055,-0.23771383,0.09574804,0.24521707,-0.32220775,-0.43593034,0.31746966,0.08971789,-0.15156336,-0.12820365,-0.24761273,0.022035845,-0.10766673,0.1330618,-0.11754634,0.03359815,-0.050265353,-0.46975717,0.7596654,-0.039240047,0.5609107,0.10021124,-0.08387246,-0.058829956,0.10654034,-0.053334013,-0.35531214,0.15575558,0.15139095,-0.24328251,-0.0688474,0.20328164,0.06471626,-0.15158081,0.04547012,-0.44951445,-0.051336672,0.282523,0.3595592,0.0865232,-0.12707517,-0.29441997,-0.3306116,0.10343625,-0.067725174,0.31420305,-0.34910688,0.17500736,0.097012006,0.20433976,-0.018249638,0.10962497,0.090953924,-0.08925748,-0.15352541,-0.035107125,-0.1626445,0.28701064,0.11096767,-1.10443,0.17553581,-0.050917357,-0.15246727,0.59247077,-0.09318269,-0.0014900315,-0.18619402,-0.39613277,-0.08875614,-0.029261168,0.14693366,-0.2749798,0.072431155,0.2235757,0.0014756502,0.3614071,-0.29954514,0.01848678,-0.13893178,0.43363473,0.2621179,0.24153739,-0.084591515,-0.2877776,0.54677176,-0.28651506,-0.39573395,-0.46084452,-0.31213635,-0.42295212,-0.5504455,0.1264702,-0.08518432,-0.049525276,0.625344,-0.17769192,-0.012056441,-0.0578759,-0.13640173,0.07772521,-0.18629918,-0.02637735,0.31186137,-0.39324325,0.059683435,0.30077195,0.3659819,0.612607,0.0809613,0.004856976,-0.10088144,0.0697424,-0.034102764,-0.043733746,0.026844729,0.18517561,0.3101674,-0.038051084,0.11218873,0.250796,0.26552668,-0.5989909,0.11350689,0.32769564,0.66088676,-0.23053782,0.0663195,-0.15217422,-0.3141358,0.09718852,-0.18413532,-0.039497975,-0.3277212,0.09163367,-0.4043548,0.16416197,0.22912498,0.27738464,-0.53546745,0.05258577,0.16930811,0.017913876,0.28706476,0.35376182,-0.23745282,-0.6486178,-0.13404852,0.17784289,0.23192152,0.06945792,-0.3522305,0.13346113,-0.13923694,0.6469173,-0.08261988,0.04687968,-0.036046486,0.033290107,-0.15913647,-0.5608079,0.16272019,0.20159362,-0.013142826,-0.004554873,0.042678233,-0.0025780045,0.348938,-0.12744299,0.28614742,0.24029444,0.12184034,0.67062473,0.2540901,0.22885431,0.71175283,-0.4303118,-0.58486754,-0.33432066,0.24144706,0.65125364,0.021891158,-0.047990795,-0.07844944,0.15894079,-0.1365315,-0.088309005
DB00031,0.33684427,0.18300886,-0.7639906,-0.3445742,-0.15646505,-0.3833713,-0.9337295,-0.16577649,0.20979376,0.3967021,-0.053303815,0.070906185,-0.1965199,0.1034584,-0.042710803,0.13194518,-0.5748767,0.618888,0.06567753,-0.20768607,0.06618883,0.055219233,-0.15742639,0.54236317,-0.075583376,-0.32830548,-0.3323,0.9082641,0.28019556,-0.30918446,0.17084809,0.3982024,0.20399277,-0.2247626,-0.22312447,-0.26927367,0.64630353,0.28517058,-0.54222226,0.3128516,-0.100163385,-0.25873375,0.2156936,0.019151386,0.16219549,0.13282177,-0.0045612426,0.11035445,-0.056376237,-0.2736274,-0.12201184,0.2850494,0.1893895,0.009315635,-0.4047992,0.09107084,-0.71140826,-0.019481072,0.1719369,0.4826969,-0.007456011,0.027825065,-0.016464753,-0.723865,-0.2458726,-0.11498084,-0.23619695,0.6742107,-0.8124783,-0.26354662,-0.24790733,-0.39785427,-0.22146687,0.13297324,0.20364222,0.42292738,0.49060124,0.32148856,0.14887112,-0.3391279,-0.2161592,-0.21974191,-0.92438215,-0.13934635,0.092955984,0.26109937,0.20268738,0.12359721,0.74682266,-0.42216423,0.06382092,-0.60087436,0.1792743,-0.29095575,0.15993413,0.08461618,0.04962335,-0.17646085,-0.11033735,-0.09357335,-0.28468546,-0.066804595,0.9202003,0.08725182,-0.286232,0.30221358,-0.10211045,-0.13969184,0.5498626,-0.2883471,-0.2047299,-0.15287115,-0.647688,-0.28140822,0.19957314,0.98694587,-0.2974022,0.55515623,0.2983693,-0.24370582,-0.8897565,0.11026778,-0.18840516,-0.26601657,-0.2615283,0.063508704,-0.13404675,-0.026525395,0.8321475,-0.12614056,0.62424994,0.34379306,0.12479925,-0.061712854,0.37014535,0.08801886,0.06914281,-0.13493529,0.07032227,0.5098656,0.26839066,-0.7561071,-0.3762912,0.064741775,-0.46881446,-0.027325917,0.35098663,-0.21318117,-0.14384557,0.11934718,0.70189613,-0.20662592,-0.4498492,-0.38840252,-0.8389141,-0.116035916,-0.73289335,0.53419405,0.44506535,0.06845723,0.09088936,0.9267626,-0.32203224,-0.2755147,-0.12435369,-0.066993855,-0.4340076,0.26610702,-0.18385771,0.09106493,0.22512548,0.054766748,0.011295805,0.3433518,-0.19231796,0.27864683,0.1533701,0.3607647,0.45802662,-0.18664719,-0.16098148,0.031703826,0.39904198,-0.20531835,0.046392534,-0.19524653,-0.078966044,-0.08845988,-0.27662775,0.12880252,0.25010738,-0.4134305,0.6113024,0.22859009,-0.14667027,0.8053704,-0.14202009,0.03942933,0.7714287,-0.28421345,-0.1567574,-0.25430778,-0.13151689,-0.56441903,-0.38828224,-0.4683591,0.30194822,0.13809276,0.1290405,-0.43223858,0.16911824,0.16882938,-0.23477225,0.10409751,-0.7738102,-0.26095966,-0.7430635,0.07726381,-0.5971313,-0.5503717,-0.51404244,-0.28025293,0.6313397,-0.7037594,-0.4914767,-0.06850266,0.5574561,-0.4764866,-0.186347,0.34758183,0.28130332,-0.120777324,0.22421896,0.0662281,0.04003945,0.065380916,0.15635726,0.85093325,-0.07274977,0.18978411,-0.09568966,0.9824153,0.7274182,0.1165557,-0.20659837,-0.5626021,0.2171602,0.46710193,0.112263046,0.7065097,-0.099390306,0.22323464,0.103787124,0.27896482,0.052737672,-0.054845322,1.0198202
DB00033,-0.38856918,0.4070806,-0.34042504,-0.20627578,0.19871835,-0.45259273,0.8904446,-0.110440284,0.5454602,0.07111062,0.07034081,-0.31712738,0.2732686,-0.32405835,0.33337453,0.1022737,0.097342,-0.6372152,-0.27101225,0.9206414,-0.7064317,0.41033986,-0.184723,0.10282424,0.26848844,0.17763814,0.3108988,0.45578897,0.20361786,0.042758953,-0.6526848,-0.26866373,-0.1332053,-0.42050838,0.1451129,0.609885,-0.32516313,-0.4808019,-0.04753768,-0.019625401,-0.23076104,-0.06283806,-0.128068,0.0445365,-0.22767435,-0.11480315,0.09482032,0.015903903,-0.1908061,-0.39366177,-0.26174727,0.2647947,-0.491041,0.09053622,-0.42002988,-0.16157323,-0.18786015,-0.08820308,-0.4794146,-0.6734853,-0.21501307,0.3979939,-0.16122182,0.20798104,-0.24499789,-0.24815266,-0.24463442,0.50475997,0.15488619,-0.17639889,-0.17139958,-0.34394288,-0.2943111,0.17724517,-0.35206738,-0.30538622,0.51155484,0.38268498,-0.2503158,-0.2082826,0.054115776,-0.10774848,0.3202786,-0.12871426,0.1128676,0.6365039,-0.18187112,0.06099698,-0.414798,-0.14256756,0.13150325,-0.6091159,-0.26193166,-0.5260082,-0.1598724,0.44882914,0.2444768,-0.1489431,0.21721448,0.11642135,-0.34655422,-0.22865549,0.76153654,0.024728123,0.45394337,0.30236894,0.4184935,0.15104437,-0.1328571,-0.17599705,-0.11720073,-0.16293398,-0.24936935,-0.262313,0.09334511,-0.5386048,-0.3304587,0.36192912,0.06988143,0.11628265,-0.027358903,-0.0024184033,-0.022007665,-0.19406563,-0.45790517,-0.23900014,0.3129299,-0.013936317,-0.72564596,0.42008856,0.33457422,0.0626278,0.0034730018,-0.088552795,-0.093907684,-0.13636231,-0.07707754,0.033399686,-0.057066906,0.4241749,0.17082962,-0.20896831,-0.55199105,0.275274,-0.043128498,0.34387937,0.52086586,-0.40318862,-0.4968325,-0.026593506,0.11866139,-0.3282376,-0.12886491,-0.21066405,-0.055614863,-1.0211756,0.40201768,-0.55098546,0.78675604,-0.30939445,0.1258918,-0.0071680723,0.008205371,-0.15375794,0.62761134,0.74636394,-0.57879984,0.88774896,-0.20762306,0.7605481,0.11320394,0.11898075,-0.15931065,0.3450935,-0.5751853,0.40384305,0.27593485,0.431037,0.047979016,0.058737494,-0.86288404,-0.11337311,-0.053589724,-0.094960414,0.09215029,-0.17662703,0.19031353,0.017139303,-0.016469045,-0.08893162,0.4083237,0.16655852,-0.25763652,-0.1420585,0.1787951,-0.6567965,0.06442481,-1.240086,0.6501712,-0.92903227,0.77584326,0.22673315,-0.16216534,0.44703856,0.028969169,0.5541643,-0.29529732,0.1849023,-0.19295561,-0.5470258,0.21857458,0.5625023,0.26782057,0.19534868,0.31084868,-0.45415735,0.59528726,-0.15651023,0.27375156,0.3770857,-0.32428414,-0.35173237,-0.3642668,-0.27374715,-0.6165825,-0.14435454,0.14956856,0.41271114,-0.29305083,-0.06880999,0.15735775,-0.18194969,0.46150202,-0.4669199,-0.030239401,-0.12430358,0.036290217,0.27434725,-0.3967809,-0.07858005,0.5541301,0.10413284,0.019214856,0.4262836,0.0960669,-0.17030804,0.2008277,0.16996683,0.034539625,-0.43754452,-0.278955,-0.10778114,-0.31584015,-0.26845276,0.0023238785,-0.22089277,1.6564307
DB00035,0.3591614,0.4151064,-0.056604143,-0.26183894,0.028883021,-0.35259125,-0.42419428,-0.079952374,0.27794534,0.13955098,-0.013061698,0.2867952,-0.1277116,-0.23094489,-0.18283542,-0.060588975,-0.09098441,0.5638124,-0.26711974,0.024973607,-0.09245954,0.17892973,-0.5165838,0.08957016,-0.19076008,-0.53069925,0.04963602,0.053221922,0.29237166,-0.060612783,-0.16448241,-0.017517718,0.08812246,-0.1326141,0.07218636,0.0029593955,0.2856453,0.36643013,-0.19564243,0.038999937,-0.19909556,-0.11283113,0.027762828,-0.22263242,0.2848125,0.2349937,0.040764738,0.002247582,-0.1174006,-0.110521205,-0.11480235,0.11270548,-0.048542496,0.17603058,-0.30039617,-0.040311698,0.052321915,0.09894907,0.2056224,0.25195897,0.08824491,0.23139921,-0.0694708,-0.31346908,-0.20368409,-0.2230249,-0.24969457,-0.021560619,-0.31158814,-0.3552348,-0.5425166,-0.24630629,-0.037386373,0.21510147,0.07018376,-0.1315231,0.86820513,0.17110252,0.0066896696,-0.30558932,-0.14833635,-0.1443691,0.18208967,-0.1521092,-0.0044007297,-0.11755688,0.061771143,-0.19843906,0.78564733,0.25047532,-0.24141149,-0.22846697,0.110806264,-0.65211284,-0.0033860088,-0.089129925,0.20966311,-0.1176515,0.060673017,0.039990824,0.042216208,-0.28055876,0.5221044,0.33085778,0.018690517,-0.063764654,-0.21060897,-0.19229686,0.25457817,-0.09545845,0.02510147,-0.35072032,-0.42966247,-0.2787345,0.06422949,0.41082603,-0.2921679,0.6780342,0.21070808,0.31382304,-0.121740825,0.15606335,-0.055848654,0.10091939,-0.3559947,-0.0050867745,0.023438523,0.2292987,0.24527456,0.025959328,0.43719503,0.27649924,0.12657379,-0.026909562,0.23198381,-0.01418537,-0.11208073,-0.3652241,0.17213133,-0.2740769,0.3432288,0.29329908,-0.12144844,0.065920964,-0.17061153,0.08012012,0.401841,-0.32807523,-0.022694329,-0.05362883,0.49757004,-0.21639334,-0.21857038,-0.24895868,-0.010295497,0.5316439,0.17329182,0.5057514,0.16647866,-0.22928113,-0.15661691,0.05462206,0.05456238,-0.47947982,-0.8093707,-0.3602098,-0.08057617,-0.26730603,-0.1626779,-0.101740204,0.3376103,0.044414368,-0.16862987,0.32041526,-0.16432877,0.16743645,0.09451222,0.19200918,0.16071706,-0.12017122,-0.08216404,0.056815192,0.4975796,-0.103578314,-0.107939914,-0.0625533,-0.2079569,0.11864053,-0.11079808,0.14896047,0.46389318,0.02296782,0.5668162,0.15242572,-0.15753372,0.650602,0.1887342,0.13867451,-0.012524926,-0.15719166,0.41175613,-0.2931971,-0.17228124,-0.87169844,-0.23390436,-0.06090137,0.47712854,0.21378052,0.2108137,-0.4075373,0.043138716,0.04521825,0.25722328,-0.03833022,-0.2709906,-0.16781521,-0.026752997,0.2624319,0.075352244,-0.23922317,0.30322936,-0.38564324,-0.4271134,-0.14927854,-0.059481643,-0.27211544,-0.04461057,0.22261904,-0.104686566,0.28754294,-0.045767207,0.047303963,0.11392424,-0.17120352,0.099802844,-0.11121063,0.025508452,0.183481,-0.23224446,0.34643334,-0.5384847,0.0979905,0.35037068,0.22943859,0.00742426,-0.24505875,0.503775,0.3461211,-0.39495564,0.60856307,-0.015960889,0.08791714,0.1814532,0.08753537,0.102315634,0.051654514,0.5705515
DB00039,0.15030721,0.23127888,-0.0678117,-0.2538411,0.35150272,-0.38193482,-0.6312421,-0.39014256,-0.13477668,0.38517046,-0.028733166,-0.09312971,-0.14594206,-0.58155185,-0.031984955,-0.029768577,-1.0277807,0.56471795,-0.35070172,0.086093284,-0.32281864,0.2676571,-0.14408407,0.22121188,-0.18266645,0.012311845,-1.1587375,1.0376657,0.15720637,-0.27845517,0.26187095,0.0011561692,0.42146516,0.14659137,-0.0799445,-0.72309893,0.025604652,-0.10149657,-1.0758862,0.17236827,-0.026329715,-0.10260453,0.13801835,-0.20540938,-0.39780366,0.14698026,0.17038928,0.12410281,-0.24573685,-0.5519196,-0.013649652,0.14243446,0.039715786,-0.033167083,-0.568363,-0.09726603,-0.43245536,-0.17570315,0.3446989,0.3834778,0.28176615,0.46709007,0.08427139,-0.9477073,-0.32393327,-0.15713893,-0.47789854,-0.13575123,-1.3029811,-0.5849549,-0.17059053,-0.16204137,-0.022049487,0.14960495,0.33018082,1.1191071,-0.035792463,0.07772061,0.23967813,-0.044501673,-0.33188117,-0.2467828,-0.6757641,0.14367768,-0.51651025,0.34071103,0.16033034,-0.21553499,0.5134263,-0.47153115,-0.22855885,-0.9901515,-0.13163614,-0.37740883,-0.28828493,-0.032073714,0.27473965,0.0066212923,0.02039466,-0.22764683,-0.263464,-0.067512125,0.55741566,-0.24368277,0.12122591,0.03349666,0.09766525,-0.31881008,-0.7563168,-0.065111786,0.011460685,0.68020916,-0.24386251,-0.32853597,0.19515274,1.5356823,0.05869347,0.3703391,0.089820854,0.04023721,-0.47644415,-0.07646956,-0.27024558,0.21232854,0.015116118,0.084602565,0.27167076,-0.10663522,1.023506,0.098981544,-0.26615867,0.4379662,-0.28902063,-0.038689017,-0.065037385,-0.09304249,0.08943023,-0.23134804,-0.49881405,0.37093592,0.35044664,-0.6903035,-0.2717745,0.15466747,-0.40073726,0.1989021,-0.099194445,-0.5046317,-0.08223229,0.24678074,0.6785539,-0.20488797,-0.07767885,-0.09836286,-0.60698456,-0.57053196,0.04120817,0.03716648,-0.26917598,-0.3154143,0.4663751,0.8817213,0.39593616,0.002087867,-0.21841024,0.17096996,-0.3268312,-0.55253303,-0.10594249,0.52939993,0.3681449,-0.03232835,-0.09855569,0.30578592,-0.20413612,-0.2412565,0.32307214,0.39871725,0.077609025,-0.36317986,0.00014316905,-0.050492413,0.11328659,-0.4167189,-0.28233334,0.108573094,-0.28595144,0.33503637,-0.23643568,-0.23752515,0.15703923,-0.46646038,0.30802915,0.027971275,0.0191582,0.81174195,-0.90802187,-0.63149524,0.95552987,0.2649086,-0.8136465,-0.545257,-0.16116652,0.2657262,-0.25177807,-1.1358281,-0.35879278,-0.063254006,0.30533105,-0.7402723,0.0305759,0.1309841,0.100365505,-0.14526919,-0.50540847,-0.34440932,-0.0059606475,0.2627521,-0.43229735,-0.14016767,-0.13342346,-0.033075,0.63551694,-0.69719344,0.47719395,-0.046267327,0.18055148,-0.6341081,-0.10837828,0.35780153,0.42608154,-0.13889784,0.18596208,0.37435672,-0.44289437,-0.13319667,-0.07099784,0.54379046,-0.15030797,-0.24811457,0.06517798,0.48177007,0.7798982,0.47020668,0.43177262,-0.63707715,0.47197816,0.7348702,-0.009519367,0.58252263,0.27280325,0.08953698,0.0109228715,0.23705266,0.07858933,-0.12230003,1.7754167
DB00040,0.14346957,0.29206,-0.3980833,-0.50497216,-0.029805562,-0.5405672,-0.6273517,0.06653851,0.5270067,0.20054144,-0.038007688,-0.30794907,-0.049727198,0.032073736,-0.035284225,0.19412766,-0.2499764,0.28187448,-0.23220149,-0.17427121,-0.35465258,0.2626244,-0.4064473,0.868972,-0.325772,-0.2996813,-0.10405547,-0.684817,0.39698935,-0.23775193,-0.0055159596,0.26567554,0.41060376,-0.40962753,-0.6400078,0.21535055,0.28168303,-0.04227904,-0.089766406,0.6815693,-0.12643948,-0.036367822,-0.024867537,-0.1481841,0.05980855,0.48657355,0.030493034,0.29010904,-0.2781601,-0.5106503,0.42794818,-0.0018213607,-0.02797778,0.029955646,0.7414023,-0.053312797,0.030584143,-0.048822094,0.7347732,-0.4870998,0.5641943,-0.13595226,0.096428834,0.25619903,-0.23562245,-0.01557566,-0.366958,-0.59422904,0.31230712,-0.07660841,-0.34742802,-0.19847935,-0.32079795,-0.01700178,-0.06553741,-0.10335157,0.3891193,0.039202403,0.21175088,-0.4058212,-0.5091407,-0.070340484,0.06282007,-0.0042272313,0.121695876,-0.06816032,0.044928234,0.011969614,0.8890276,0.49098885,-0.07183198,0.6062298,0.10316037,-0.41893175,0.010295345,0.11823175,0.13776417,0.6954311,0.3268895,0.25098875,-0.07403939,-0.010245747,-0.14156501,0.18889035,0.283901,0.12953416,-0.054001164,0.019952398,0.2108553,-0.67464983,-0.08308295,0.22925398,-0.45931512,-0.25847307,0.12382411,-0.27768496,-0.23875235,-0.3912309,0.3653392,-0.13903047,0.027447866,0.002362747,-0.0023679002,-0.17804097,-0.38422465,-0.14304917,0.28044066,-0.033408552,0.57703817,-0.0074662096,0.39425337,0.299485,0.00913527,-0.04654706,-0.53277546,-0.24504821,0.07715799,-0.2538736,0.53238964,0.7299137,0.40940028,0.5249501,-0.36151972,-0.10279826,0.094481975,0.2276269,0.41097867,-0.4190812,0.0013497405,0.19918127,-0.6639686,0.022913871,-0.5774278,0.13710113,-0.22404689,0.7211748,-0.2260129,0.034034044,0.061915383,-0.22485843,-0.5166874,-0.53787035,-0.21945085,-0.44144064,0.35300568,-0.33441693,-0.43127587,-0.059501503,-0.335836,0.18879822,0.3275124,0.089867316,-0.0872079,0.08599276,-0.24151665,0.10369674,-0.07899441,0.06588164,-0.2704342,-0.111903794,-0.18355419,-0.020130474,0.4062412,0.18244778,-0.08323536,-0.10786462,0.048377797,0.55842984,0.16101915,-0.0875507,0.24665704,0.6031522,0.05041315,0.022372948,0.38682047,-0.5820662,0.5202347,0.5242522,-0.34434238,0.028655553,-0.422143,-0.64853925,-0.24371682,-0.11295566,-0.13683257,0.3850809,0.8067542,0.33854356,0.08728129,-0.22248475,0.26767322,0.28544816,-0.02316559,0.49384794,0.078550786,-0.39920038,0.7265761,0.37744778,0.7363459,-0.008086217,0.7592161,-0.16837628,-0.41873676,0.32246467,-0.33613604,-0.32866725,-0.07356142,-0.45344946,0.02062019,0.29668117,0.40404359,0.17215848,0.49330065,-0.10771293,0.42144585,-0.0025704596,-0.020350866,0.5076679,0.13441668,-0.017522966,-0.958532,-0.17752145,-0.26163808,0.29501212,-0.1363391,0.4834425,0.060480177,0.8005267,-0.0895506,-0.4859737,-0.7779845,0.025798164,0.055388406,0.18972263,0.052585833,-0.02201777,1.180739
DB00041,0.3527256,0.27228823,0.82619935,-0.26024264,0.09039198,-0.3589811,0.4852933,-0.051705938,0.4603116,0.074895434,-0.082456395,0.6126055,-0.101893194,-0.02691261,0.2142676,0.09027073,-0.19435222,-0.5471747,-0.07274724,0.16271886,-0.15341634,0.7126176,-0.36954054,-0.8336708,-0.16131209,0.23235343,0.17673953,0.14495072,0.13433091,0.13858934,-0.34634647,0.6700284,-0.27258715,-0.3253625,0.16240048,-0.70182073,-0.45385864,0.14215755,-0.6625339,-0.34440747,-0.13340056,-0.08173932,-0.060747106,-0.23454376,0.16031316,-0.050704762,-0.13016668,0.22950925,-0.36873734,-0.017960139,-0.11483551,0.13415383,-0.010008638,0.035610244,0.298591,-0.0035494277,0.5150139,-0.06753154,0.27953696,-0.2616727,0.16517106,0.26089218,0.07065794,0.5870621,-0.3104137,-0.09833243,-0.35142317,0.22828473,0.21345904,-0.3347989,-0.035896614,-0.3988008,-0.044434804,-0.037269246,0.026000284,-0.30185708,0.19572942,0.15671043,-0.009364859,-0.3464725,-0.11066196,-0.27847952,0.66680056,-0.19788143,0.07096676,0.09963425,0.21515456,-0.08573716,-0.5427531,-0.30670017,-0.24512824,-0.20496774,0.2297664,-0.18111245,0.28678104,0.17104939,-0.113951586,-0.26040325,-0.3249376,-0.037350617,-0.31947038,-0.30570897,0.39185607,0.085597284,0.14934036,0.25114742,-0.34578532,0.08045356,-0.37020794,0.2407147,0.02906284,0.09046106,-0.13309503,-0.2904031,0.06925501,-0.087749876,-0.27615768,-0.11126509,0.17054811,0.00057881104,0.09833842,0.048019044,0.27882645,-0.21647026,-0.4237712,-0.24029943,-0.18161854,0.07975494,-0.34834057,0.10419964,-0.54375774,0.21462443,0.04801889,0.0793425,-0.38169658,-0.08407418,-0.11773356,-0.40781286,0.0418906,0.003728221,0.32781246,0.3454057,-0.28864208,0.00814763,0.40902513,0.017883642,0.23959377,-0.31362045,0.08582993,0.07018472,0.5994081,0.0024042793,-0.42936644,0.02112291,0.34876397,-0.12458475,0.78690684,0.7322808,0.17821956,-0.019344183,0.7408821,-0.064787924,-0.06913224,-0.040195394,-0.18846191,-0.6298529,-0.16249427,0.5409191,-0.24535511,0.83213735,0.14824577,-0.32895735,-0.07040364,0.3139285,-0.2564303,0.32693496,0.17233591,0.20475926,-0.14317967,0.07792799,-0.051273562,0.12413976,0.1933015,-0.009999465,-0.001039859,-0.1950938,-0.019052604,-0.14297757,0.018125681,0.13383241,0.3243194,-0.19969022,-0.14431661,0.18735637,0.24820015,0.27932438,-0.7140982,-0.038154174,0.21050803,-0.19302195,-0.64618117,0.20217098,0.09557453,-0.069851145,-0.22332872,-0.25723717,-0.21312566,0.19691214,0.04328003,-0.9019925,0.20957871,0.22986925,0.1490596,0.07676633,-0.31532988,-0.1436488,0.08009524,0.7223294,-0.010178256,-0.1306307,0.30437517,-0.07450881,-0.40869585,-0.31845558,0.5044427,-0.17477031,0.17682749,-0.65308416,0.14809954,0.04239996,0.25982937,-0.174859,0.2555876,0.22586243,-0.29890501,-0.14194469,-0.05730576,-0.116506994,0.04584247,0.20253932,0.24225079,-0.70675695,0.23916431,0.18420762,-0.18347889,0.71945804,-0.039153665,0.25537986,0.10059088,0.32892677,0.24671158,0.034020547,0.42991957,-0.08292077,0.19771807,-0.17907374,0.6894946
DB00042,0.053034123,0.19234703,-0.38862354,-0.5022731,0.025194319,-0.36518794,-0.5420399,-0.030584285,0.4314182,0.344975,-0.19075048,-0.5885,-0.1532891,-0.035345163,-0.056338485,-0.26806176,0.049548097,0.16846067,0.207086,0.042717185,-0.42017385,-0.3490184,-0.23295426,0.7332944,-0.2670445,-0.67836726,0.07422746,-0.650148,0.35645527,-0.10091531,-0.17585938,0.18934342,-0.064727336,0.040136904,-0.636473,0.17027685,0.2052462,0.037058633,0.118973814,0.58287966,-0.29713243,-0.2328754,-0.22240828,0.11314083,-0.1701488,0.1490456,0.03771813,0.19112495,-0.28565612,-0.45369464,0.028804472,0.21215479,0.08744117,0.20706248,0.40032855,-0.08579413,-0.078949,-0.11202407,0.778541,-0.33731312,0.9045323,-0.17740491,0.13683079,0.494828,-0.42947957,-0.20861281,-0.52312326,-0.5238695,0.31345496,-0.42154992,-0.267581,-0.2019877,-0.30394244,0.029938363,0.13038307,-0.013516518,0.36659566,0.23656565,0.09804375,-0.034840032,-0.25998124,-0.21287271,0.19232176,-0.10837885,0.48758987,-0.20608406,0.12308485,-0.08500122,0.79664516,0.66719824,0.030104728,0.5782818,0.032007046,-0.275807,-0.15945332,0.07997562,0.16362895,0.55221653,0.12421147,0.23553415,-0.2648598,-0.05312542,-0.39914837,0.13549316,0.17232566,0.213508,0.075018585,0.19392772,0.12285285,-0.52680314,0.06882311,0.09506927,-0.30676037,-0.20285569,0.098129034,-0.1887392,-0.5430855,-0.45332032,0.41955703,0.24445003,0.17895274,0.36632064,0.055516366,-0.18756506,-0.27650017,-0.023525853,0.27090803,-0.26289874,0.8579836,0.002973468,0.3397794,0.4084176,0.102248244,-0.050922036,-0.17379873,-0.16513097,-0.0042283465,-0.33693781,0.7546276,0.32395953,0.37836203,0.5638833,-0.37791383,-0.0006798764,0.22302468,0.15289383,0.36454743,-0.6481731,0.046648573,-0.048553653,-0.6869582,0.08115119,-0.21076009,-0.22118051,-0.124384925,0.3565845,0.050051175,0.38838667,-0.12790957,-0.2579967,-0.43354806,-0.54351693,-0.11449752,-0.37254032,0.34446916,-0.5014769,-0.10089448,0.05921553,-0.33983362,-0.023344936,0.24753049,-0.07480023,-0.025346326,0.24822068,-0.10623229,-0.047216576,0.32995406,0.32463863,-0.17952693,0.11477119,-0.18317407,0.04851765,0.33200097,-0.04471273,0.017972311,-0.26593238,-0.13737336,0.712732,0.15633442,0.2641796,0.1916468,0.47326416,0.011120819,-0.11993619,0.035568528,-0.6670936,0.5857959,0.09089896,-0.375855,0.0813026,-0.4885427,-0.61460066,-0.21647614,0.41938677,-0.28402677,0.338786,0.6592783,0.2782134,0.123975456,0.17820509,0.01714168,0.39463907,0.036870092,0.3720583,0.17184693,-0.19702828,0.9146526,0.5259855,1.022199,0.24143907,0.8200706,-0.027889859,-0.553014,0.41947043,-0.10640017,-0.34162852,-0.0073844614,-0.46061912,-0.22340395,0.14277624,0.39034805,-0.08747811,0.38385218,-0.0072202696,0.55385363,0.083112,0.06314184,0.0489704,-0.00062839687,-0.2181432,-0.6240267,-0.46525642,-0.66896564,0.22821005,0.04658282,0.8540192,-0.533202,0.7530438,-0.116582274,-0.71719575,-0.47618684,0.07300156,-0.01931703,0.17409708,0.16261315,-0.19603465,1.0280653
DB00043,0.4265136,0.61778474,-0.42950964,-0.12171832,0.07527811,-0.4020262,-0.43628696,0.24856278,0.20320085,0.5804647,-0.42052257,0.31517556,-0.33206972,-0.4925819,-0.38488314,-0.04844306,-0.02184893,-0.3751342,-0.04520211,-0.5517676,-0.08454044,-0.39810616,-0.42250925,0.4656006,-0.13071623,-0.99051493,-0.24388978,0.2853467,-0.0779634,-0.41903758,-0.4387045,-0.1745088,0.45143753,0.12608792,-0.4263397,-0.6187714,0.4929059,0.8368325,-0.22546352,0.2786085,-0.74809295,0.04947903,0.055097785,0.011198336,0.30868438,0.61082554,-0.034578573,0.5055935,-0.42331907,-0.11264268,-0.0054944814,-0.08539432,-0.15617497,-0.15799546,-0.4110385,0.12439573,-0.09153499,-0.12641516,0.34421316,-0.7449224,0.40856156,0.18059835,0.19300832,0.116472825,-0.22792351,0.08151432,-0.3959434,-0.5869725,-0.045819405,-0.45679697,-0.21417013,-0.061682615,-0.1476158,0.5543264,-0.23451121,-0.40406895,0.26372078,-0.52196324,-1.041405,-0.13582994,-0.8116053,-0.567152,0.118106715,-0.26433706,-0.45989883,-0.65743715,0.06148697,0.41804516,0.8638527,-0.7190429,0.34189028,0.23089993,0.114359915,-0.20193627,-0.004952854,-0.012136445,0.09241088,0.83515704,-0.5399362,0.30297792,-0.16836716,-0.27760696,-0.5562573,-0.10054095,0.78958875,-0.16921993,0.05831706,0.098815,0.19315721,-0.7083576,0.046137143,-0.49594328,-0.13839021,-0.11122179,0.3849915,0.28609142,-0.15247463,0.5705989,0.06984723,-0.08743441,-0.32351774,0.5720506,-0.34129402,-0.14589514,0.18512344,0.10935204,0.095122375,0.3796586,-0.08776005,0.08962604,-0.5532456,0.49808365,-0.35331398,-0.34364223,-0.16916505,-0.13350673,-0.09950947,-0.37551188,-0.66486126,0.4184352,0.04326475,0.20702422,-0.19338821,-0.3334017,-0.13867806,0.08595717,-0.12052809,0.009894445,0.41037443,-0.041066118,-0.04616746,-0.0286649,-1.0855237,-0.25391227,-1.010396,0.1319448,1.2304171,-0.38103965,-0.16603729,0.034553796,0.13250208,-0.16105515,0.124825515,-0.71190876,0.40659708,-0.26283178,-0.2736474,-0.52697647,-0.59582376,0.65724456,0.17282793,-0.16171724,0.11993573,0.35958043,-0.10630829,0.3681683,0.5414833,0.4378763,-0.78234625,-0.0005727061,-0.33281785,-0.19094878,0.06315296,-0.28876662,0.060997978,-0.27520177,-0.38057798,0.876084,0.20963368,0.019104987,0.57871246,-0.42195103,0.28748217,-0.33594656,0.03208059,0.037279274,0.68384,1.3735247,0.25004023,-0.22953135,-0.1145359,-0.8393306,0.10366622,-0.6471049,0.24181846,-0.1005546,0.1950564,0.56254035,0.0055526756,0.21911006,-0.088486455,0.16251276,-0.1484886,-0.045318864,-0.7665418,-0.18124582,0.78394043,0.113643736,-0.40248516,0.7414069,0.5119527,-0.002786988,-0.27355257,0.6224664,-0.1918306,-0.054713637,0.4821875,0.39304936,-0.37141156,0.6289963,0.027535282,0.33660278,0.28556725,0.9234916,-0.029773748,-0.28246942,-0.23520906,0.148514,-0.23422813,0.16975151,0.30436382,-0.22623758,-0.27577922,0.03157293,0.22024341,-0.5043028,0.8994816,-0.4010118,0.50650495,-0.16984068,0.5356665,0.27135602,0.35503623,-0.37830412,0.4684971,-0.0579587,1.571216
DB00046,0.347663,0.41552597,0.34661743,-0.20422871,-0.089571446,-0.2268882,-0.30995974,-0.00059486524,0.211807,0.33014643,-0.010936648,-0.13413547,-0.10977424,-0.0031490976,-0.07794069,0.08325861,-0.69281995,0.44818893,-0.031885073,-0.14041169,-0.1408628,-0.39526704,-0.23956707,-0.4679327,-0.13570651,0.37568653,-0.117373526,-0.29584005,0.3178884,-0.060247302,0.25730765,-0.038601786,0.29118776,0.15101463,0.8405527,-0.36633492,0.14834343,-1.4239599,0.7111019,-0.8179701,-0.11835647,-0.11283196,-0.03346061,-0.021927642,0.0014688617,0.3662441,0.026241772,0.3947988,-0.038514055,0.08871121,-0.0046357466,0.04085484,0.3501006,0.2055983,-0.15733963,-0.16904688,0.12564951,-0.0390161,0.2785303,-0.35121715,-0.3173247,0.12928364,0.10572527,0.57492554,-0.03370317,-0.26945862,-0.20028888,-1.110874,0.14437622,-0.24957585,-0.42261377,-0.059293844,-0.26909783,0.2343055,0.18774444,-0.05213065,-0.2057408,0.17291382,-0.03780376,-0.32044026,-0.367251,-0.13710657,0.31072447,0.06325199,0.28360203,0.17475037,0.022256175,-0.10762844,-0.76192915,0.9842441,-0.16162969,0.5536602,-0.035845757,-0.14043562,-0.08877347,-0.061555557,0.1463629,-0.18441255,0.25979123,0.040795088,-0.3621005,-0.1870927,0.35451776,0.21020645,0.22388749,0.32415515,-0.02649216,-0.022730388,-0.3439311,0.48585302,0.22523637,-0.5728345,-0.26997244,-0.253855,0.12253635,-0.61816067,0.45751685,-0.3672944,0.051558718,-0.075979255,0.11267855,0.23936018,-0.2153552,0.09646739,-0.007592727,-0.20808068,-0.10351529,-0.13586874,0.6206558,0.1091455,-1.0904512,0.18543702,-0.05139995,-0.048878938,0.48822722,0.02147956,-0.2372564,-0.24513607,-0.6139793,0.14486744,0.25410044,0.23712088,-0.07597736,0.07370762,0.20254223,0.009790826,0.23556697,-0.2716186,-0.13406438,-0.037618965,0.26078516,0.035979223,0.35988522,-0.2667916,-0.2883483,0.69183105,-0.17816179,-0.6732961,-0.25800782,-0.560349,-0.29817584,-0.39384443,-0.21371248,-0.06392199,-0.02933137,0.09655522,0.05040666,0.038428314,-0.102244504,-0.19216944,0.3240539,-0.19456328,-0.10482252,0.41199663,-0.12657417,0.09539914,0.09778634,0.107931145,0.77573186,-0.06771598,0.052779812,-0.10412051,0.23138864,-0.18328297,0.05577749,-0.005418776,0.032485552,0.29708895,-0.043489594,0.21566485,0.1330916,0.25247654,-0.7918454,0.11480759,0.30390832,0.7096814,-0.44040018,-0.19560628,-0.36472768,-0.08278121,-0.05202031,0.18662761,-0.117257275,-0.4413641,-0.10547274,-0.7098409,-0.09333379,0.23072237,-0.072221965,-0.5396716,0.10068606,0.25960428,0.1322465,0.28621972,0.33150017,-0.333628,-0.8217967,-0.2104551,0.12940131,0.24693558,0.04534057,-0.36645344,0.2155239,-0.124112,0.67451483,-0.40717015,0.28513595,0.16838133,-0.26151246,-0.35555342,-0.6940736,0.07780801,0.2726793,0.15286593,0.3218534,-0.025432877,0.17889127,0.636621,-0.05188158,-0.020282838,0.31536683,0.2655942,0.97188,0.34215006,-0.048868425,0.7144542,-0.69331425,-0.64900917,-0.6302777,0.29130086,0.7501539,-0.08870847,0.007380692,0.061057363,0.14427358,0.011041632,0.5891208
DB00047,0.19754848,0.2386232,0.29946554,-0.25468907,-0.1844635,-0.39575493,-0.26552138,-0.19302078,0.3704346,0.14153641,-0.14693496,-0.026154269,-0.19599316,0.110837445,0.24021466,0.040374868,-0.61049366,0.5593162,-0.052724715,-0.10942677,-0.24758987,-0.2770052,-0.4492561,-0.31968835,-0.04471477,0.54917824,-0.2446117,-0.1953156,0.3079607,0.082077205,0.18638277,-0.13401623,0.21928199,0.027154889,0.7200995,-0.047172774,0.3089963,-1.4210417,0.8246701,-0.5404637,-0.3263621,-0.008725275,-0.04758264,0.005624605,0.07523118,0.308662,0.18242118,0.33335337,-0.17431048,0.22564322,0.18651845,0.13596226,0.23982844,0.06000027,0.15241419,-0.11803368,0.019314373,-0.22904326,0.2258652,-0.36634612,-0.40618813,-0.021589285,0.108594604,0.5495894,-0.12179038,-0.025952473,-0.21138822,-0.86237895,0.25828564,-0.19775495,-0.55352175,-0.2687668,-0.3078637,0.15594165,0.18416987,0.2335631,-0.2892633,0.05849051,0.029319098,-0.32145783,-0.19045897,-0.25763977,0.33374286,0.12852502,0.010158243,0.14105296,0.06843849,0.09936809,-0.7376423,1.0240575,0.047733873,0.6551196,-0.025156142,-0.040775206,0.082792,-0.055266626,0.075967245,-0.08193733,0.10090442,0.16653864,-0.22629403,-0.05092268,0.12752946,0.27668378,0.017780142,0.22718588,-0.38924843,0.20993443,0.0955685,0.68824595,-0.03230954,-0.38491747,-0.29449272,-0.09262456,0.08503202,-0.32747212,0.6672814,-0.24926178,0.39135548,0.14540459,-0.22778973,-0.038062204,0.33634222,-0.025241453,-0.20880015,-0.1625607,0.08144846,-0.04436365,0.606662,0.11665186,-1.0571643,0.3181945,-0.2352487,-0.010820907,0.38431153,0.0190114,-0.08456765,-0.39582554,-0.59542716,-0.23610093,0.30179873,0.23059168,-0.25158593,0.08918355,0.10303726,-0.38863653,0.31830043,-0.40984124,-0.056149516,0.06574414,0.26361883,-0.09208972,0.33595112,0.0091829235,-0.012541886,0.4998194,-0.20854323,-0.50407666,-0.20286667,-0.62084204,-0.14110208,-0.3818336,0.12686288,-0.16222918,-0.107118376,-0.048580937,-0.10420395,0.009380396,0.014034165,-0.33200043,0.3125203,-0.0013126374,-0.14603792,0.23858933,-0.23011863,0.034392077,0.22329965,0.16277027,0.57843477,0.06634472,0.09041429,-0.002336775,0.21260533,-0.2739019,-0.007798419,-0.2676297,-0.0073540322,0.23278287,0.04518558,0.2913457,0.30719334,0.1389602,-0.70492744,0.16250622,0.217795,0.6780546,-0.39959025,-0.12307415,-0.5929768,-0.22018382,-0.115081735,0.151836,0.024164377,-0.42644817,-0.19727805,-0.6508008,0.078167595,0.21022657,0.2848756,-0.5984626,-0.03761192,0.34701398,0.11046529,0.1740213,0.34778252,-0.18185888,-0.7780986,-0.33045176,0.31068835,0.20344311,0.024190923,-0.32999536,0.42521128,0.06761431,0.43172655,-0.23580399,0.19124994,-0.0011912182,-0.20508246,-0.23167413,-0.514963,-0.15835744,0.24458766,0.09283172,0.3305254,-0.2842245,0.08014676,0.2951427,0.10990139,0.1485661,0.15089749,0.19241334,0.87684315,0.18560565,0.20866077,0.69326305,-0.39112094,-0.690765,-0.56568867,0.343535,0.781169,0.049567588,-0.0025762578,0.17133124,0.13644767,0.08727335,0.6267963
DB00048,0.27286196,0.26781732,-0.8610323,-0.23104341,0.10492067,-0.33011037,-0.9120302,-0.06819482,0.046486497,0.54006237,-0.047529392,0.19049378,0.12985565,-0.3587563,-0.27037776,-0.28639302,-0.72669214,0.91578317,-0.13383952,-0.12591298,-0.18763764,-0.011019048,-0.39899647,0.60838175,-0.6452117,0.1782831,-0.91757023,0.8331922,-0.016501164,0.0024629794,0.18756537,0.13925713,0.14190924,-0.6018673,-0.4092161,-0.69297487,0.8883053,0.24515559,-0.6009844,-0.21222427,-0.21233435,0.090965405,-0.10059032,-0.0077079274,0.32362014,0.06121642,0.35924232,0.06415235,-0.23659496,-0.6426545,0.082070336,-0.3134522,0.16349757,-0.22534668,0.05812661,-0.55590117,-0.54035085,-0.02837328,0.2414982,0.6943861,-0.2911372,0.10546982,0.18241715,-0.74824584,-0.04473863,0.11291688,-0.26560175,0.44862062,-0.9447385,-0.38884437,-0.5962145,-0.19163768,-0.06575982,-0.0088758655,0.054392498,0.9743183,0.6788714,0.23357195,0.07879339,-0.3107671,-0.13891685,-0.49898225,-0.9437858,0.24282399,-0.38562116,0.13521907,0.07638306,0.0066226623,0.7693685,-0.41274688,0.04609636,-0.74217063,0.14668584,-0.2268747,0.04331382,-0.36305496,-0.33875448,0.16470167,0.13227111,0.27086332,-0.5866228,0.14553699,0.8895055,0.29709572,0.007642214,0.6445933,-0.020670405,-0.20213206,-0.07403419,0.17707494,0.17780258,-0.0039090477,-0.36314893,-0.17487957,0.26940894,0.975052,0.16270266,0.46372202,0.21372533,0.4222879,-0.8285764,0.25556388,0.025905484,0.17670362,0.15382722,-0.586424,0.21886867,-0.18694669,0.97558504,0.27343744,0.36855456,0.04595639,-0.34401008,0.13233896,0.5490957,-0.3134847,-0.05469438,-0.16175237,0.07056987,0.614347,0.28245565,-0.71294755,-0.33784103,-0.22537175,-0.4261025,0.1184776,0.097891435,-0.40386695,-0.74583876,0.23386998,0.8681906,0.07676439,-0.36834636,-0.0017483083,-0.708442,-0.14704563,-0.6624237,0.14385158,0.410277,-0.26989585,0.004633893,1.036837,0.26036364,0.19685337,-0.63970596,0.37748292,-0.4523164,0.5157858,-0.20537761,0.20661934,0.10352947,-0.101489045,-0.25254604,0.35140797,-0.32928714,-0.11138656,0.17258078,0.36849022,0.8704035,-0.16122572,-0.17383164,-0.15190695,0.17529583,-0.1917431,0.31513658,-0.008236673,0.22847661,0.33745202,-0.34370407,0.12997955,0.35645348,-0.49138546,0.9779931,-0.09259588,0.33928496,0.7611932,-0.9023598,-0.12248607,1.0143037,-0.41644895,-0.49815774,-0.4954169,-0.017054895,-0.16643058,-0.07424809,-0.84638256,-0.08332391,0.25231767,0.06316412,-0.7037906,-0.41244614,0.5205493,0.20873846,0.15321141,-0.9245826,-0.42989892,-0.7676672,-0.46732786,-0.44154856,-0.46501476,-1.1404204,0.025447484,0.5027139,-1.0086509,-0.05867718,-0.10884994,-0.013650712,-0.62179524,0.031543907,0.47976553,-0.13202445,-0.11388802,0.18281116,0.18006787,-0.5194632,-0.17469443,-0.058867283,1.1246575,-0.109625325,-0.045294337,0.13840345,0.44637898,0.81428045,0.42188776,0.18350959,-0.78157747,0.37255257,0.38064197,-0.12564811,1.187575,-0.121168494,0.1058775,0.05939194,0.0004947386,0.080899015,0.064410485,1.7784305
DB00051,0.19670406,0.13425158,0.12875281,-0.1411941,0.11004838,-0.31284544,-0.3249074,-0.007601488,-0.013889005,-0.018398862,0.20787749,-0.032209538,0.12522496,0.09601081,-0.20676629,0.41349617,0.83297646,-0.19605337,-0.09287712,-0.55218214,-0.3622351,-0.646341,-0.741989,-0.78836054,-0.3279284,-0.106828116,0.7175502,0.31174314,0.036938954,0.17159267,-0.21246046,0.3174192,0.42112887,0.021666598,0.46400478,-0.2477056,0.25150478,0.6894139,0.12986286,-0.23436055,-0.1859706,-0.30218244,-0.19136132,-0.14539488,-0.9299666,0.86002207,0.13506675,0.06914819,-0.29139274,0.14398554,0.12730105,-0.19784081,-0.022600738,-0.053553224,-0.55948097,-0.34583527,-0.19029394,0.08982233,-0.13557221,0.3873051,0.3012264,0.003914694,0.08562421,-0.2021254,-0.22537233,-0.20433022,-0.35648155,-0.4960946,-0.8775343,-0.21600638,-0.08475354,-0.24323873,-0.30558428,0.09741454,-0.02858269,-0.48970848,0.44692317,0.09652746,-0.061621957,-0.027962131,0.17016149,0.032807805,0.59551233,-0.07975445,-0.0015082902,0.0085511105,0.2331354,0.0011415066,-0.12825254,-0.326516,-0.083126165,-0.28639534,0.1860098,-0.13057998,0.036570102,-0.038463626,0.34124407,0.5778411,0.044628583,0.24115953,-0.39028132,0.059263453,-0.84403,0.19607258,-0.03879963,0.3381767,-0.09523447,-0.31438544,0.43514898,-0.7125792,0.277066,0.09701568,-0.25650096,-0.14265804,0.2603965,0.673307,0.39948523,0.13581327,0.20474729,0.076575644,-0.14102602,-0.051747758,-0.13655159,-0.30881244,-0.15545207,-0.051539235,0.18383159,0.10260352,-1.1048459,0.026410053,-0.60981494,-0.02745955,-0.06372367,-0.20070496,-0.45146465,-0.06516709,-0.13391869,-0.14729656,-0.8264957,-0.022859985,0.15595339,-0.41598663,-0.08036799,0.15204254,-0.56450284,-0.029527526,0.36872265,-0.13223499,0.71321476,-0.08946805,-0.4846707,-0.2740689,-0.99183136,0.0037129223,-0.71516484,-0.09788605,0.8720828,-0.66650325,-0.26298472,-0.45306903,0.97978944,0.37074572,-0.12309517,-0.1691798,0.044983014,-0.7490087,-0.14974649,0.07059036,-0.31506252,-0.5012587,0.18427277,-0.016343107,-0.015963834,0.3784813,-0.4033148,-0.47995526,-0.15352497,0.11994244,-0.55089355,0.16358396,-0.17457229,-0.03136418,0.32808524,-0.0521601,-0.07923807,-0.11865122,-0.3556372,0.7434598,-0.1245406,0.014468832,0.047387987,-0.80482125,0.51699364,-0.030070364,0.39047268,-0.29448187,0.7619196,0.07876756,0.29869238,-0.22172268,0.77555144,-0.53428835,0.15679055,-0.9668882,-0.23259233,-0.6173596,-1.2397203,0.39108026,0.25435704,0.52715737,0.03478641,0.14304051,0.06387347,-0.8604465,-0.3238069,-0.21739137,0.76761353,-0.63386154,-0.8102533,0.79548955,-0.29471236,-0.18066487,-0.057318747,0.65481615,0.3383018,-0.41012585,0.18727948,0.43232608,0.10787938,0.13106152,-0.6718933,-0.22644354,0.40957505,0.15447521,-0.6445132,0.27723852,-0.09500394,-0.65614355,-0.15887912,-0.079816125,0.6963681,-0.701431,-0.28569672,0.38981995,-0.06266532,0.26782897,0.77304536,-0.03165241,-0.4147982,0.79005736,0.34895486,0.055227965,-0.20706326,-0.16171288,0.054705203,-0.027916024,1.0479097
DB00052,0.178617,0.524031,0.4699955,-0.455419,0.050863422,-0.78275836,-0.039552744,-0.32077342,0.6791299,0.29582244,-0.44384566,-0.24564636,-0.036274493,0.07727366,0.111659005,-0.13412294,0.60413635,0.40675387,-0.14872205,-0.2369964,-0.97115815,0.01594976,-0.35733336,-0.7986128,0.1651831,-0.07015064,-0.21104354,0.7735447,0.784714,-0.32440546,-0.44790733,-0.5440459,-0.15216105,-0.10150886,0.39172745,-0.13142744,0.09707677,-0.34494117,-0.17008641,-0.26245794,-0.42114744,-0.31869587,0.79680955,0.41391838,-0.019903447,0.80040723,0.14810279,0.2727611,-0.34496,-1.1385894,0.05037298,0.30303156,0.09004001,0.0886013,-0.013019517,0.27929935,0.23606777,0.077035,-0.2672266,-0.07380444,-0.26642182,0.1589995,0.2658986,-0.12418312,-0.6800027,0.15320776,-0.6100712,-0.46322843,-0.07700483,-0.19624531,-0.50024277,-0.7094979,-0.42322403,0.97360295,-0.4052861,0.42536777,0.29336575,-0.0058760005,-0.09713338,-0.5744047,-0.18375176,0.16167206,-0.07295265,-0.14466934,0.14146876,-0.39161098,-0.11121667,-0.2517191,-0.7517952,0.89398223,-0.21124801,0.16791365,0.19760461,-0.4791328,-0.099342234,0.26243532,0.68545306,0.11478065,-0.37340757,0.031499565,-0.2698658,0.18325487,-0.041778695,0.36969098,0.23292726,0.54930073,0.29083878,-0.039361972,-0.6336668,-0.13797583,-0.37560946,0.17938447,-0.6608405,-0.13226452,-0.012653785,-0.44742364,-0.3045116,-0.33270398,0.5493643,-0.4080758,-0.44765994,0.31474555,-0.056672275,-0.02479748,-0.14355342,0.46705192,0.11420132,-0.38249892,-0.61418724,-0.4560943,-1.2637745,0.56812966,0.12847176,-0.57691574,-0.050600037,0.1749825,0.17889349,-1.2633466,-0.76867354,-0.12942235,0.6811022,-0.021991752,-0.423625,0.011183845,-0.56534374,-0.25130108,0.17301963,-0.8390102,0.1421746,0.13986392,0.5854723,0.073245205,-0.082465746,0.09361735,0.2447853,-0.3468025,0.72823393,-0.35700706,0.21301952,-0.54556197,-0.23769502,-0.22315569,0.08741596,-0.6683635,-0.12124911,0.16617621,-0.12309211,0.44717887,-0.122880295,0.15131292,0.6658368,-0.0953958,0.71107537,0.30173218,-0.25730258,0.16891846,0.5831938,-0.2310095,0.30345285,-0.11767183,0.18594243,0.19326285,0.29780126,0.19179393,-0.057033166,-0.3046272,0.13527142,0.59684914,0.38578478,0.4101311,0.10255022,-0.42355484,-0.33481255,0.52629113,0.20882735,0.54625654,-0.30553576,0.055994347,0.04521109,-0.17393064,-0.3112628,-0.700443,-0.02590074,-0.49039677,-0.061743855,-0.70336956,-1.0303403,0.80654573,-0.39897695,-0.8217246,-0.015839035,0.5535127,-0.12691848,0.29961234,0.044361297,-0.26390725,0.13744843,-0.8637988,0.5439088,0.15868387,0.06494625,-0.44423413,0.5012076,-0.4326431,0.67588115,0.15688147,0.49995494,0.20560151,0.43260685,0.110794954,-0.5765419,-0.19305,0.42273036,-0.01753193,-0.018543152,-0.1404683,-0.24668324,-0.044820018,-0.007765617,-0.3947774,0.44866586,0.6675358,0.3652862,0.6928079,-0.42759964,0.71210766,-0.2966906,-0.18643413,-0.55616,0.64638484,0.19121884,-0.09730456,0.008540634,0.35379118,-0.07805795,0.097045325,1.8485614
